{"learner":{"attributes":{"best_iteration":"599","best_ntree_limit":"600","scikit_learn":"{\"use_label_encoder\": null, \"n_estimators\": 600, \"objective\": \"binary:logistic\", \"max_depth\": 5, \"max_leaves\": null, \"max_bin\": null, \"grow_policy\": null, \"learning_rate\": 0.03, \"verbosity\": null, \"booster\": null, \"tree_method\": null, \"gamma\": null, \"min_child_weight\": null, \"max_delta_step\": null, \"subsample\": 0.9, \"sampling_method\": null, \"colsample_bytree\": 0.9, \"colsample_bylevel\": null, \"colsample_bynode\": null, \"reg_alpha\": null, \"reg_lambda\": null, \"scale_pos_weight\": null, \"base_score\": null, \"missing\": NaN, \"num_parallel_tree\": null, \"random_state\": 42, \"n_jobs\": null, \"monotone_constraints\": null, \"interaction_constraints\": null, \"importance_type\": null, \"gpu_id\": null, \"validate_parameters\": null, \"predictor\": null, \"enable_categorical\": false, \"feature_types\": null, \"max_cat_to_onehot\": null, \"max_cat_threshold\": null, \"eval_metric\": \"logloss\", \"early_stopping_rounds\": null, \"callbacks\": null, \"classes_\": [0, 1], \"n_classes_\": 2, \"_estimator_type\": \"classifier\"}"},"feature_names":["age","sex","cp","trestbps","chol","fbs","restecg","thalach","exang","oldpeak","slope"],"feature_types":["int","int","int","int","int","int","int","int","int","float","int"],"gradient_booster":{"model":{"gbtree_model_param":{"num_parallel_tree":"1","num_trees":"600","size_leaf_vector":"0"},"tree_info":[0,0,0,0,0,0,0,0,0,0,0,0,0,0,0,0,0,0,0,0,0,0,0,0,0,0,0,0,0,0,0,0,0,0,0,0,0,0,0,0,0,0,0,0,0,0,0,0,0,0,0,0,0,0,0,0,0,0,0,0,0,0,0,0,0,0,0,0,0,0,0,0,0,0,0,0,0,0,0,0,0,0,0,0,0,0,0,0,0,0,0,0,0,0,0,0,0,0,0,0,0,0,0,0,0,0,0,0,0,0,0,0,0,0,0,0,0,0,0,0,0,0,0,0,0,0,0,0,0,0,0,0,0,0,0,0,0,0,0,0,0,0,0,0,0,0,0,0,0,0,0,0,0,0,0,0,0,0,0,0,0,0,0,0,0,0,0,0,0,0,0,0,0,0,0,0,0,0,0,0,0,0,0,0,0,0,0,0,0,0,0,0,0,0,0,0,0,0,0,0,0,0,0,0,0,0,0,0,0,0,0,0,0,0,0,0,0,0,0,0,0,0,0,0,0,0,0,0,0,0,0,0,0,0,0,0,0,0,0,0,0,0,0,0,0,0,0,0,0,0,0,0,0,0,0,0,0,0,0,0,0,0,0,0,0,0,0,0,0,0,0,0,0,0,0,0,0,0,0,0,0,0,0,0,0,0,0,0,0,0,0,0,0,0,0,0,0,0,0,0,0,0,0,0,0,0,0,0,0,0,0,0,0,0,0,0,0,0,0,0,0,0,0,0,0,0,0,0,0,0,0,0,0,0,0,0,0,0,0,0,0,0,0,0,0,0,0,0,0,0,0,0,0,0,0,0,0,0,0,0,0,0,0,0,0,0,0,0,0,0,0,0,0,0,0,0,0,0,0,0,0,0,0,0,0,0,0,0,0,0,0,0,0,0,0,0,0,0,0,0,0,0,0,0,0,0,0,0,0,0,0,0,0,0,0,0,0,0,0,0,0,0,0,0,0,0,0,0,0,0,0,0,0,0,0,0,0,0,0,0,0,0,0,0,0,0,0,0,0,0,0,0,0,0,0,0,0,0,0,0,0,0,0,0,0,0,0,0,0,0,0,0,0,0,0,0,0,0,0,0,0,0,0,0,0,0,0,0,0,0,0,0,0,0,0,0,0,0,0,0,0,0,0,0,0,0,0,0,0,0,0,0,0,0,0,0,0,0,0,0,0,0,0,0,0,0,0,0,0,0,0,0,0,0,0,0,0,0,0,0,0,0,0,0,0,0,0,0,0,0,0,0,0,0,0,0,0,0,0,0,0,0,0,0,0,0,0,0,0,0,0,0,0,0,0,0,0,0,0,0,0,0,0,0,0,0,0,0,0,0,0,0,0,0,0,0,0,0,0,0],"trees":[{"base_weights":[8.712623E-2,-1.1960232E0,8.0277723E-1,-1.626329E0,-8.3788794E-1,-2.4935864E-1,1.1391398E0,-5.434462E-1,-1.707162E0,-1.0645374E0,1.6774629E-1,-9.224971E-1,4.6312696E-1,7.839474E-1,1.4990902E0,-7.8573865E-1,-1.6101763E-2,-1.8364301E0,-1.1866347E0,-7.219945E-1,-1.495304E0,-7.345621E-1,1.3861334E0,2.9723153E-1,-1.4749204E0,1.3585911E0,-1.3473044E-1,1.4678823E0,3.4605458E-1,1.0839148E0,1.6172764E0,-1.8665217E0,-4.8479345E-1,-1.523607E0,-5.9729856E-1,-3.463891E-1,-1.3569537E0,2.1584237E-2,-1.5804538E0,-1.2264943E0,3.3931774E-1,8.201972E-1,-4.5538124E-1,-4.5330125E-1,-1.5842212E0,2.1136618E-1,1.5850543E0,8.1456363E-1,-4.906554E-1,4.250022E-2,8.823301E-1,1.3633347E0,5.084472E-1,8.8474816E-1,1.7390654E0],"categories":[],"categories_nodes":[],"categories_segments":[],"categories_sizes":[],"default_left":[1,1,1,1,1,1,1,1,1,1,1,1,1,1,1,0,0,1,1,1,1,1,0,1,1,1,1,0,1,1,1,0,0,0,0,0,0,0,0,0,0,0,0,0,0,0,0,0,0,0,0,0,0,0,0],"id":0,"left_children":[1,3,5,7,9,11,13,15,17,19,21,23,25,27,29,-1,-1,31,33,35,37,39,-1,41,43,45,47,-1,49,51,53,-1,-1,-1,-1,-1,-1,-1,-1,-1,-1,-1,-1,-1,-1,-1,-1,-1,-1,-1,-1,-1,-1,-1,-1],"loss_changes":[2.563029E2,1.4041901E1,6.3668922E1,2.9536438E0,1.308321E1,2.1629595E1,1.6199326E1,5.683328E-1,5.6583405E-1,5.7581787E0,1.3416062E1,1.5980459E1,1.2037102E1,2.0604992E1,1.505127E0,0E0,0E0,3.5001373E-1,1.2628889E0,6.147496E0,2.564808E0,4.184209E0,0E0,3.531098E0,1.0733528E0,1.9915085E0,5.1932287E0,0E0,7.1719847E0,2.1602554E0,2.8912048E0,0E0,0E0,0E0,0E0,0E0,0E0,0E0,0E0,0E0,0E0,0E0,0E0,0E0,0E0,0E0,0E0,0E0,0E0,0E0,0E0,0E0,0E0,0E0,0E0],"parents":[2147483647,0,0,1,1,2,2,3,3,4,4,5,5,6,6,7,7,8,8,9,9,10,10,11,11,12,12,13,13,14,14,17,17,18,18,19,19,20,20,21,21,23,23,24,24,25,25,26,26,28,28,29,29,30,30],"right_children":[2,4,6,8,10,12,14,16,18,20,22,24,26,28,30,-1,-1,32,34,36,38,40,-1,42,44,46,48,-1,50,52,54,-1,-1,-1,-1,-1,-1,-1,-1,-1,-1,-1,-1,-1,-1,-1,-1,-1,-1,-1,-1,-1,-1,-1,-1],"split_conditions":[1.5E0,5E-2,1.5E0,1.5E0,3.5E0,1.565E2,5E-1,5E-1,3.5E0,1.95E0,5E-1,5E-1,5.05E1,2.5E-1,3.5E0,-2.3572158E-2,-4.8305286E-4,6.45E1,1.555E2,2.655E2,3.85E1,2.475E2,4.1584004E-2,5E-1,2.025E2,1.975E2,1.595E2,4.4036467E-2,5.95E1,1.25E0,5E-1,-5.599565E-2,-1.4543803E-2,-4.570821E-2,-1.7918957E-2,-1.0391673E-2,-4.0708613E-2,6.475271E-4,-4.741361E-2,-3.679483E-2,1.0179532E-2,2.4605917E-2,-1.3661437E-2,-1.3599037E-2,-4.7526635E-2,6.340985E-3,4.755163E-2,2.4436908E-2,-1.4719661E-2,1.2750066E-3,2.6469903E-2,4.090004E-2,1.5253414E-2,2.6542444E-2,5.217196E-2],"split_indices":[10,9,2,2,2,7,8,1,2,9,8,9,0,9,2,0,0,0,7,4,0,4,0,8,4,4,7,0,0,9,1,0,0,0,0,0,0,0,0,0,0,0,0,0,0,0,0,0,0,0,0,0,0,0,0],"split_type":[0,0,0,0,0,0,0,0,0,0,0,0,0,0,0,0,0,0,0,0,0,0,0,0,0,0,0,0,0,0,0,0,0,0,0,0,0,0,0,0,0,0,0,0,0,0,0,0,0,0,0,0,0,0,0],"sum_hessian":[2.7706418E2,9.895979E1,1.7810437E2,4.334223E1,5.561756E1,4.320829E1,1.3489609E2,3.5470555E0,3.9795177E1,4.534023E1,1.0277334E1,2.2066069E1,2.1142223E1,6.949633E1,6.539976E1,2.0946577E0,1.4523978E0,2.985336E1,9.941817E0,2.674714E1,1.8593088E1,6.132704E0,4.1446304E0,7.0225368E0,1.5043531E1,7.9549522E0,1.3187271E1,2.6208975E1,4.3287354E1,1.674558E1,4.865417E1,2.8830568E1,1.0227926E0,5.3165884E0,4.6252284E0,1.7776886E1,8.970255E0,1.0279177E0,1.756517E1,4.1085215E0,2.0241826E0,4.0904317E0,2.932105E0,1.951397E0,1.3092134E1,1.6301618E0,6.3247905E0,3.2446966E0,9.9425745E0,2.8330408E1,1.49569435E1,1.0350685E1,6.394896E0,8.114172E0,4.054E1],"tree_param":{"num_deleted":"0","num_feature":"11","num_nodes":"55","size_leaf_vector":"0"}},{"base_weights":[1.0431925E-1,-1.1348901E0,7.925707E-1,-1.5368674E0,-8.127309E-1,-1.6013247E-1,1.1046895E0,-4.4432065E-1,-1.6139203E0,-1.0223247E0,1.4531492E-1,4.2851424E-1,-1.0196351E0,7.585473E-1,1.4591087E0,-7.6597923E-1,-1.7840408E-2,8.580701E-1,-1.1027527E0,-7.348882E-1,1.3538969E0,8.828797E-1,-8.870709E-1,-3.2373816E-1,-1.2977294E0,1.4008002E0,3.5511407E-1,8.9013404E-1,1.5960057E0,-7.399129E-1,-1.5154105E0,-1.2019868E0,2.7755827E-1,1.2990075E0,2.5916988E-1,-1.280063E0,-3.067012E-1,-9.048476E-1,2.8341708E-1,-3.7256706E-1,-1.6276139E0,3.0938635E-2,1.5652099E0,-7.209868E-1,1.0768478E0,1.000961E0,1.7180328E0],"categories":[],"categories_nodes":[],"categories_segments":[],"categories_sizes":[],"default_left":[1,1,1,1,1,1,1,1,0,1,1,1,1,1,1,0,0,0,1,1,0,1,1,1,1,0,1,1,1,0,0,0,0,0,0,0,0,0,0,0,0,0,0,0,0,0,0],"id":1,"left_children":[1,3,5,7,9,11,13,15,-1,17,19,21,23,25,27,-1,-1,-1,29,31,-1,33,35,37,39,-1,41,43,45,-1,-1,-1,-1,-1,-1,-1,-1,-1,-1,-1,-1,-1,-1,-1,-1,-1,-1],"loss_changes":[2.4271115E2,1.1914688E1,5.455484E1,2.9954681E0,1.1905334E1,2.3710476E1,1.5807098E1,5.741857E-1,0E0,8.230434E0,1.3106632E1,1.7524002E1,3.2557278E0,1.8114841E1,3.8009949E0,0E0,0E0,0E0,5.860016E0,3.7555099E0,0E0,5.196228E0,1.3609529E0,2.6399899E0,3.4339771E0,0E0,1.7784264E1,5.3676205E0,2.112442E0,0E0,0E0,0E0,0E0,0E0,0E0,0E0,0E0,0E0,0E0,0E0,0E0,0E0,0E0,0E0,0E0,0E0,0E0],"parents":[2147483647,0,0,1,1,2,2,3,3,4,4,5,5,6,6,7,7,9,9,10,10,11,11,12,12,13,13,14,14,18,18,19,19,21,21,22,22,23,23,24,24,26,26,27,27,28,28],"right_children":[2,4,6,8,10,12,14,16,-1,18,20,22,24,26,28,-1,-1,-1,30,32,-1,34,36,38,40,-1,42,44,46,-1,-1,-1,-1,-1,-1,-1,-1,-1,-1,-1,-1,-1,-1,-1,-1,-1,-1],"split_conditions":[1.5E0,5E-2,1.5E0,1.5E0,3.5E0,5E-1,5E-1,5E-1,-4.841761E-2,1.09E2,5E-1,1.425E2,4.5000002E-1,2.5E-1,5E-1,-2.2979377E-2,-5.352122E-4,2.5742102E-2,1.95E0,2.475E2,4.0616903E-2,5.55E1,2.395E2,1.31E2,1.215E2,4.2024005E-2,1.425E2,1.885E2,3.5E0,-2.2197388E-2,-4.5462314E-2,-3.6059603E-2,8.326747E-3,3.8970225E-2,7.775096E-3,-3.840189E-2,-9.201036E-3,-2.7145429E-2,8.502512E-3,-1.1177012E-2,-4.8828416E-2,9.2815905E-4,4.6956293E-2,-2.1629604E-2,3.2305434E-2,3.0028827E-2,5.1540986E-2],"split_indices":[10,9,2,2,2,8,8,6,0,3,8,3,9,9,1,0,0,0,9,4,0,0,4,3,3,0,3,4,2,0,0,0,0,0,0,0,0,0,0,0,0,0,0,0,0,0,0],"split_type":[0,0,0,0,0,0,0,0,0,0,0,0,0,0,0,0,0,0,0,0,0,0,0,0,0,0,0,0,0,0,0,0,0,0,0,0,0,0,0,0,0,0,0,0,0,0,0],"sum_hessian":[2.8252115E2,1.0065002E2,1.8187112E2,4.310046E1,5.7549553E1,4.50003E1,1.3687082E2,3.285222E0,3.981524E1,4.7164238E1,1.0385315E1,2.70061E1,1.7994202E1,7.083265E1,6.603817E1,1.4189657E0,1.8662564E0,1.5379707E0,4.5626266E1,6.235777E0,4.1495376E0,2.0317816E1,6.6882844E0,5.7556143E0,1.2238587E1,2.6373953E1,4.44587E1,1.4262444E1,5.1775726E1,2.5764885E1,1.9861382E1,4.1390085E0,2.0967684E0,1.1537496E1,8.78032E0,3.2690659E0,3.4192185E0,2.690359E0,3.065255E0,3.7765696E0,8.462018E0,3.5873917E1,8.584782E0,1.1840478E0,1.3078396E1,1.0376974E1,4.1398754E1],"tree_param":{"num_deleted":"0","num_feature":"11","num_nodes":"47","size_leaf_vector":"0"}},{"base_weights":[8.778655E-2,-1.1229261E0,7.626553E-1,-1.2623309E0,-5.2959955E-1,-1.2798467E-1,1.0553969E0,-1.2969749E0,5.657166E-2,-1.1379052E0,8.118211E-1,4.7262505E-1,-9.905594E-1,6.7731154E-1,1.4441978E0,-1.8654518E-1,-1.3398455E0,5.3503746E-1,-4.562943E-1,-1.2596556E0,-2.1719772E-1,1.05996676E-1,1.2660521E0,9.272142E-1,-1.0502609E0,-1.3283168E0,1.4695839E-2,4.8788315E-1,1.4072715E0,9.5805746E-1,1.5509295E0,2.1110633E-1,-6.3978636E-1,-5.92788E-1,-1.3667767E0,-4.2288792E-1,-1.5203991E0,6.028489E-1,-3.8110527E-1,1.0161798E0,-4.512151E-1,-1.2458835E0,3.8358957E-2,-1.4980873E0,9.293783E-2,6.7484003E-1,-5.8215654E-1,6.984378E-1,-3.4007746E-1,1.4600856E0,4.0397066E-1,1.112745E0,4.31561E-2,9.224662E-1,1.6910489E0],"categories":[],"categories_nodes":[],"categories_segments":[],"categories_sizes":[],"default_left":[1,1,1,1,1,1,1,1,1,1,1,1,1,1,1,1,1,0,0,1,0,1,0,1,1,1,1,1,1,1,1,0,0,0,0,0,0,0,0,0,0,0,0,0,0,0,0,0,0,0,0,0,0,0,0],"id":2,"left_children":[1,3,5,7,9,11,13,15,17,19,21,23,25,27,29,31,33,-1,-1,35,-1,37,-1,39,41,43,45,47,49,51,53,-1,-1,-1,-1,-1,-1,-1,-1,-1,-1,-1,-1,-1,-1,-1,-1,-1,-1,-1,-1,-1,-1,-1,-1],"loss_changes":[2.3054607E2,7.686905E0,4.73516E1,3.777893E0,1.8012125E1,2.4139187E1,1.9073288E1,3.5128632E0,9.884818E-1,1.3881702E0,2.1476803E0,2.0089622E1,6.4971848E0,9.136272E0,1.9576416E0,8.7400264E-1,7.176819E-1,0E0,0E0,2.1682434E0,0E0,1.1683521E0,0E0,3.1314163E0,1.4994354E0,3.587492E0,2.6730204E0,1.0336966E1,1.5761948E-1,2.0130653E0,3.089859E0,0E0,0E0,0E0,0E0,0E0,0E0,0E0,0E0,0E0,0E0,0E0,0E0,0E0,0E0,0E0,0E0,0E0,0E0,0E0,0E0,0E0,0E0,0E0,0E0],"parents":[2147483647,0,0,1,1,2,2,3,3,4,4,5,5,6,6,7,7,8,8,9,9,10,10,11,11,12,12,13,13,14,14,15,15,16,16,19,19,21,21,23,23,24,24,25,25,26,26,27,27,28,28,29,29,30,30],"right_children":[2,4,6,8,10,12,14,16,18,20,22,24,26,28,30,32,34,-1,-1,36,-1,38,-1,40,42,44,46,48,50,52,54,-1,-1,-1,-1,-1,-1,-1,-1,-1,-1,-1,-1,-1,-1,-1,-1,-1,-1,-1,-1,-1,-1,-1,-1],"split_conditions":[1.5E0,3.5E0,1.5E0,1.86E2,5E-1,5E-1,5E-1,1.09E2,1.91E2,1.45E2,5E-1,1.425E2,1.565E2,1.42E2,5E-1,1.55E2,5E-1,1.6051123E-2,-1.3688829E-2,1.13E2,-6.5159313E-3,1.31E2,3.7981562E-2,1.5E0,6.5E1,6.35E1,5E-1,1.5E0,1.71E2,1.5E0,3.5E0,6.3331896E-3,-1.919359E-2,-1.778364E-2,-4.10033E-2,-1.2686637E-2,-4.561197E-2,1.8085467E-2,-1.1433158E-2,3.0485393E-2,-1.3536452E-2,-3.7376504E-2,1.1507687E-3,-4.4942617E-2,2.7881349E-3,2.02452E-2,-1.7464695E-2,2.0953134E-2,-1.0202324E-2,4.3802567E-2,1.2119119E-2,3.3382352E-2,1.294683E-3,2.7673986E-2,5.0731465E-2],"split_indices":[10,2,2,7,8,8,8,3,7,3,6,3,7,3,1,7,10,0,0,3,0,3,0,6,0,0,6,6,3,6,2,0,0,0,0,0,0,0,0,0,0,0,0,0,0,0,0,0,0,0,0,0,0,0,0],"split_type":[0,0,0,0,0,0,0,0,0,0,0,0,0,0,0,0,0,0,0,0,0,0,0,0,0,0,0,0,0,0,0,0,0,0,0,0,0,0,0,0,0,0,0,0,0,0,0,0,0,0,0,0,0,0,0],"sum_hessian":[2.8011307E2,1.0001769E2,1.8009537E2,8.007593E1,1.9941763E1,4.4690712E1,1.3540466E2,7.8042595E1,2.033338E0,1.3824406E1,6.1173573E0,2.6612522E1,1.807819E1,7.00385E1,6.5366165E1,3.0999346E0,7.494266E1,1.0295831E0,1.0037551E0,1.1884687E1,1.9397182E0,2.878243E0,3.2391145E0,2.0795967E1,5.8165555E0,1.3291114E1,4.7870755E0,5.6932568E1,1.3105928E1,1.3563534E1,5.180263E1,1.9357939E0,1.1641407E0,3.4083261E0,7.153433E1,3.4464214E0,8.438266E0,1.3072264E0,1.5710164E0,1.978201E1,1.0139579E0,4.8080907E0,1.0084646E0,1.1824593E1,1.4665214E0,2.2109766E0,2.5760992E0,4.5514442E1,1.1418122E1,1.2018014E1,1.0879146E0,1.1416958E1,2.1465757E0,1.0826592E1,4.097604E1],"tree_param":{"num_deleted":"0","num_feature":"11","num_nodes":"55","size_leaf_vector":"0"}},{"base_weights":[6.1460134E-2,-3.1752217E-1,8.663596E-1,-9.205652E-2,-1.0583931E0,1.2642313E-2,1.4067506E0,-5.394834E-1,1.9602269E-1,-1.3741345E0,-3.7363076E-1,-4.3918633E-1,8.1706154E-1,6.734682E-1,1.5337342E0,3.831795E-1,-7.096712E-1,3.7198916E-1,-1.4708594E0,-4.9553782E-1,-1.5143447E0,-1.3138648E0,2.231337E-2,-6.60923E-1,6.059236E-1,1.3104818E0,3.6051977E-1,-2.1742393E-1,1.0266947E0,1.5694357E0,-6.4449213E-3,-3.735406E-1,7.804694E-1,-9.609637E-1,-1.9122763E-1,-1.04589716E-1,9.4790137E-1,-1.6410661E0,-6.7031014E-1,-1.2088666E0,1.508088E-1,-1.7189331E0,-1.0648557E0,-5.477898E-1,5.961747E-1,-1.6527061E-1,-1.09371E0,1.1719196E-1,1.0677934E0,4.2776746E-1,1.5173575E0,8.435246E-2,1.0712289E0,-7.3734105E-1,3.5319215E-1,1.3811082E0,-3.0100562E-2,1.5878556E0,4.1065866E-1],"categories":[],"categories_nodes":[],"categories_segments":[],"categories_sizes":[],"default_left":[1,1,1,1,1,1,1,1,1,1,1,1,1,1,1,1,1,1,1,1,1,0,1,1,1,1,1,1,1,1,0,0,0,0,0,0,0,0,0,0,0,0,0,0,0,0,0,0,0,0,0,0,0,0,0,0,0,0,0],"id":3,"left_children":[1,3,5,7,9,11,13,15,17,19,21,23,25,27,29,31,33,35,37,39,41,-1,43,45,47,49,51,53,55,57,-1,-1,-1,-1,-1,-1,-1,-1,-1,-1,-1,-1,-1,-1,-1,-1,-1,-1,-1,-1,-1,-1,-1,-1,-1,-1,-1,-1,-1],"loss_changes":[8.634047E1,3.2067146E1,4.1773773E1,1.9275358E1,9.179543E0,1.3488049E1,4.1316223E0,9.4607315E0,2.7299162E1,2.9834366E0,5.807675E0,5.91149E0,2.533E0,3.3606281E0,2.566681E0,3.226431E0,6.2984276E0,2.2960896E1,1.1414337E-1,2.790848E0,5.285835E-1,0E0,4.221552E0,4.130288E0,9.322133E-1,4.525118E-1,1.540554E0,1.3450207E0,2.780995E0,3.1793976E-1,0E0,0E0,0E0,0E0,0E0,0E0,0E0,0E0,0E0,0E0,0E0,0E0,0E0,0E0,0E0,0E0,0E0,0E0,0E0,0E0,0E0,0E0,0E0,0E0,0E0,0E0,0E0,0E0,0E0],"parents":[2147483647,0,0,1,1,2,2,3,3,4,4,5,5,6,6,7,7,8,8,9,9,10,10,11,11,12,12,13,13,14,14,15,15,16,16,17,17,18,18,19,19,20,20,22,22,23,23,24,24,25,25,26,26,27,27,28,28,29,29],"right_children":[2,4,6,8,10,12,14,16,18,20,22,24,26,28,30,32,34,36,38,40,42,-1,44,46,48,50,52,54,56,58,-1,-1,-1,-1,-1,-1,-1,-1,-1,-1,-1,-1,-1,-1,-1,-1,-1,-1,-1,-1,-1,-1,-1,-1,-1,-1,-1,-1,-1],"split_conditions":[3.5E0,1.8499999E0,5E-1,1.505E2,2.5E0,1.7E0,5E-1,1.125E2,1.5E0,4.7E1,5E-1,1.425E2,1.35E2,5.3E1,1.645E2,5E-2,2.5E0,5E-1,5.65E1,1.475E2,6.05E1,-3.9415944E-2,5.5E1,1.275E2,5E-1,5E-1,2.45E1,1.25E0,1.79E2,7.15E1,-1.9334763E-4,-1.1206218E-2,2.3414083E-2,-2.8828911E-2,-5.736829E-3,-3.1376914E-3,2.843704E-2,-4.923198E-2,-2.0109303E-2,-3.6265995E-2,4.524264E-3,-5.156799E-2,-3.1945672E-2,-1.6433693E-2,1.7885242E-2,-4.9581183E-3,-3.28113E-2,3.5157588E-3,3.20338E-2,1.2833023E-2,4.5520723E-2,2.5305739E-3,3.2136865E-2,-2.2120232E-2,1.0595764E-2,4.1433245E-2,-9.0301683E-4,4.7635667E-2,1.23197595E-2],"split_indices":[2,9,8,7,2,9,1,3,6,0,1,3,7,0,7,9,2,6,0,7,0,0,0,3,5,1,9,9,3,0,0,0,0,0,0,0,0,0,0,0,0,0,0,0,0,0,0,0,0,0,0,0,0,0,0,0,0,0,0],"split_type":[0,0,0,0,0,0,0,0,0,0,0,0,0,0,0,0,0,0,0,0,0,0,0,0,0,0,0,0,0,0,0,0,0,0,0,0,0,0,0,0,0,0,0,0,0,0,0,0,0,0,0,0,0,0,0,0,0,0,0],"sum_hessian":[2.8114212E2,1.9155504E2,8.958709E1,1.4772336E2,4.383168E1,3.5122875E1,5.446421E1,5.7517708E1,9.020566E1,2.9310146E1,1.4521533E1,2.2781132E1,1.23417425E1,8.969918E0,4.5494293E1,8.762241E0,4.8755466E1,8.229493E1,7.9107304E0,4.657731E0,2.4652414E1,3.616131E0,1.0905402E1,1.9097002E1,3.684129E0,5.0323915E0,7.3093505E0,2.6558683E0,6.31405E0,4.4445057E1,1.0492364E0,3.0371485E0,5.725093E0,3.2263577E1,1.6491892E1,4.5478745E1,3.681618E1,5.657872E0,2.2528582E0,1.8004216E0,2.8573096E0,1.5000588E1,9.651826E0,5.493405E0,5.4119973E0,9.546117E0,9.550886E0,2.3991652E0,1.2849641E0,1.5379387E0,3.494453E0,6.0695376E0,1.2398129E0,1.236786E0,1.4190824E0,4.4985156E0,1.8155344E0,4.3385124E1,1.0599315E0],"tree_param":{"num_deleted":"0","num_feature":"11","num_nodes":"59","size_leaf_vector":"0"}},{"base_weights":[6.688694E-2,-1.0912371E0,7.200743E-1,-1.5112797E0,-7.284526E-1,-2.0323399E-1,1.0350512E0,-6.3334954E-1,-1.5648415E0,-9.5493144E-1,2.808277E-1,3.9372772E-1,-9.4947714E-1,6.8562424E-1,1.39878E0,3.1658385E-2,-9.521163E-1,-1.6790617E0,-1.0668277E0,1.0286248E0,-1.0260944E0,-5.8149636E-1,1.3001752E0,7.9333425E-1,-8.518214E-1,-1.2749468E0,-2.8106043E-1,1.3076853E0,3.0763075E-1,1.4640862E0,9.220973E-1,-1.4187047E0,1.6070065E-1,-7.180762E-1,-1.3622657E0,-1.1087071E0,5.551154E-1,-1.0541551E0,9.5786315E-1,-1.3195148E0,-3.465527E-1,-1.4278955E0,2.1290703E-1,4.2075008E-1,-7.6798666E-1,1.3619357E0,1.4469407E-1,-2.4061601E-1,1.2028592E0,1.4774319E0,4.0787545E-1,-5.482603E-1,1.3051803E0],"categories":[],"categories_nodes":[],"categories_segments":[],"categories_sizes":[],"default_left":[1,1,1,1,1,1,1,1,1,1,1,1,1,1,1,0,0,0,1,0,1,1,0,1,1,1,1,1,1,1,1,0,0,0,0,0,0,0,0,0,0,0,0,0,0,0,0,0,0,0,0,0,0],"id":4,"left_children":[1,3,5,7,9,11,13,15,17,19,21,23,25,27,29,-1,-1,-1,31,-1,33,35,-1,37,39,41,43,45,47,49,51,-1,-1,-1,-1,-1,-1,-1,-1,-1,-1,-1,-1,-1,-1,-1,-1,-1,-1,-1,-1,-1,-1],"loss_changes":[2.105386E2,1.4196754E1,5.194432E1,1.1528168E0,1.3022055E1,2.0903625E1,1.5919983E1,9.4199216E-1,6.1437225E-1,7.520046E0,1.042385E1,1.3771126E1,4.161171E0,1.5985546E1,6.457062E-1,0E0,0E0,0E0,4.820532E0,0E0,3.6515694E0,4.5998535E0,0E0,7.2219524E0,1.1668673E0,3.4190922E0,3.086322E0,1.4455795E0,2.2208845E1,1.6820526E-1,6.5882607E0,0E0,0E0,0E0,0E0,0E0,0E0,0E0,0E0,0E0,0E0,0E0,0E0,0E0,0E0,0E0,0E0,0E0,0E0,0E0,0E0,0E0,0E0],"parents":[2147483647,0,0,1,1,2,2,3,3,4,4,5,5,6,6,7,7,8,8,9,9,10,10,11,11,12,12,13,13,14,14,18,18,20,20,21,21,23,23,24,24,25,25,26,26,27,27,28,28,29,29,30,30],"right_children":[2,4,6,8,10,12,14,16,18,20,22,24,26,28,30,-1,-1,-1,32,-1,34,36,-1,38,40,42,44,46,48,50,52,-1,-1,-1,-1,-1,-1,-1,-1,-1,-1,-1,-1,-1,-1,-1,-1,-1,-1,-1,-1,-1,-1],"split_conditions":[1.5E0,5E-2,1.5E0,1.5E0,3.5E0,5E-1,5E-1,1.4E2,3.5E0,1.09E2,5E-1,1.425E2,1.51E2,2.5E-1,1.515E2,9.497515E-4,-2.8563488E-2,-5.0371848E-2,1.5E0,3.0858742E-2,1.95E0,2.475E2,3.9005253E-2,1.175E2,2.275E2,6.65E1,5E-1,1.5E0,1.37E2,7.3E1,1.525E2,-4.256114E-2,4.8210192E-3,-2.1542287E-2,-4.086797E-2,-3.326121E-2,1.6653461E-2,-3.1624652E-2,2.8735895E-2,-3.958544E-2,-1.0396581E-2,-4.2836867E-2,6.387211E-3,1.2622502E-2,-2.30396E-2,4.085807E-2,4.3408223E-3,-7.21848E-3,3.6085773E-2,4.4322956E-2,1.2236264E-2,-1.6447809E-2,3.915541E-2],"split_indices":[10,9,2,2,2,8,8,7,2,3,8,3,7,9,7,0,0,0,6,0,9,4,0,7,4,0,6,6,3,0,7,0,0,0,0,0,0,0,0,0,0,0,0,0,0,0,0,0,0,0,0,0,0],"split_type":[0,0,0,0,0,0,0,0,0,0,0,0,0,0,0,0,0,0,0,0,0,0,0,0,0,0,0,0,0,0,0,0,0,0,0,0,0,0,0,0,0,0,0,0,0,0,0,0,0,0,0,0,0],"sum_hessian":[2.7627774E2,9.938825E1,1.7688948E2,4.4592247E1,5.4796005E1,4.50848E1,1.3180467E2,3.3015335E0,4.1290714E1,4.4797466E1,9.998539E0,2.5310167E1,1.9774635E1,6.86954E1,6.3109283E1,1.3616203E0,1.9399133E0,3.1658321E1,9.632391E0,1.0855308E0,4.3711937E1,5.6491456E0,4.349393E0,1.9437233E1,5.8729353E0,1.2688741E1,7.085894E0,2.5035355E1,4.3660038E1,5.3683216E1,9.426069E0,7.365339E0,2.2670524E0,2.4447691E1,1.9264244E1,3.875888E0,1.7732575E0,1.1472864E0,1.8289946E1,2.2129996E0,3.6599355E0,1.1542491E1,1.1462494E0,2.9581685E0,4.1277256E0,2.3756132E1,1.2792234E0,2.7531004E1,1.6129034E1,5.2619537E1,1.0636767E0,1.8591316E0,7.566938E0],"tree_param":{"num_deleted":"0","num_feature":"11","num_nodes":"53","size_leaf_vector":"0"}},{"base_weights":[6.723547E-2,-2.9478812E-1,8.512662E-1,-8.2171194E-2,-9.83089E-1,-2.9390114E-3,1.3592852E0,-4.327957E-1,2.907733E-1,-1.3166997E0,-3.3957514E-1,-3.380549E-1,9.058202E-1,6.590471E-1,1.4512945E0,-5.1271045E-1,1.402981E0,6.066186E-1,-9.7430104E-1,5.3694E-1,-1.4032599E0,-8.0554795E-1,2.4475878E-1,-6.170679E-1,3.1236297E-1,1.0981566E0,1.3298368E-1,9.261228E-1,-5.641104E-1,1.47969E0,5.8717084E-1,-8.994959E-1,-1.9853806E-1,-2.3366548E-1,9.372604E-1,-1.5431519E0,-2.3006599E-1,-6.647539E-1,-1.4914498E0,-9.399461E-1,-1.4506267E-1,7.082858E-1,-5.560929E-1,-1.117514E-1,-1.1322434E0,-8.730497E-1,7.2291636E-1,1.2383025E0,3.352922E-1,1.3603327E0,3.4914878E-1,9.7032744E-1,-7.490836E-2],"categories":[],"categories_nodes":[],"categories_segments":[],"categories_sizes":[],"default_left":[1,1,1,1,1,1,1,1,1,1,1,1,1,1,1,1,0,1,1,0,1,1,1,1,1,1,0,1,0,0,1,0,0,0,0,0,0,0,0,0,0,0,0,0,0,0,0,0,0,0,0,0,0],"id":5,"left_children":[1,3,5,7,9,11,13,15,17,19,21,23,25,27,29,31,-1,33,35,-1,37,39,41,43,45,47,-1,49,-1,-1,51,-1,-1,-1,-1,-1,-1,-1,-1,-1,-1,-1,-1,-1,-1,-1,-1,-1,-1,-1,-1,-1,-1],"loss_changes":[8.017179E1,2.8217857E1,3.8713547E1,1.958684E1,9.330456E0,1.0741072E1,2.6475143E0,1.2031832E1,2.9645874E1,5.5103645E0,4.798016E0,4.8677845E0,1.2665367E0,3.2430985E0,3.2390594E-1,8.88975E0,0E0,1.6556812E1,5.9577913E0,0E0,8.7129974E-1,7.1881914E-1,3.4614217E0,4.654087E0,4.7179527E0,3.83605E-1,0E0,1.3324223E0,0E0,0E0,8.85576E-1,0E0,0E0,0E0,0E0,0E0,0E0,0E0,0E0,0E0,0E0,0E0,0E0,0E0,0E0,0E0,0E0,0E0,0E0,0E0,0E0,0E0,0E0],"parents":[2147483647,0,0,1,1,2,2,3,3,4,4,5,5,6,6,7,7,8,8,9,9,10,10,11,11,12,12,13,13,14,14,15,15,17,17,18,18,20,20,21,21,22,22,23,23,24,24,25,25,27,27,30,30],"right_children":[2,4,6,8,10,12,14,16,18,20,22,24,26,28,30,32,-1,34,36,-1,38,40,42,44,46,48,-1,50,-1,-1,52,-1,-1,-1,-1,-1,-1,-1,-1,-1,-1,-1,-1,-1,-1,-1,-1,-1,-1,-1,-1,-1,-1],"split_conditions":[3.5E0,1.8499999E0,5E-1,5E-1,2.5E0,1.42E2,8.5E-1,3.51E2,1.5E0,3.85E1,5.5E1,1.45E0,2.715E2,2.905E2,1.625E2,1.505E2,4.208943E-2,1.445E2,5.55E1,1.6108198E-2,4.7E1,1.35E2,1.52E2,1.275E2,1.925E2,6.5E1,3.9895102E-3,1.31E2,-1.6923312E-2,4.4390697E-2,1.7E0,-2.6984876E-2,-5.9561417E-3,-7.0099644E-3,2.8117811E-2,-4.6294555E-2,-6.9019794E-3,-1.9942617E-2,-4.4743493E-2,-2.8198384E-2,-4.35188E-3,2.1248573E-2,-1.6682787E-2,-3.352542E-3,-3.39673E-2,-2.619149E-2,2.168749E-2,3.714907E-2,1.0058765E-2,4.080998E-2,1.0474463E-2,2.9109823E-2,-2.2472509E-3],"split_indices":[2,9,8,6,2,3,9,4,6,0,0,9,4,4,7,7,0,7,0,0,0,3,7,3,4,0,0,3,0,0,9,0,0,0,0,0,0,0,0,0,0,0,0,0,0,0,0,0,0,0,0,0,0],"split_type":[0,0,0,0,0,0,0,0,0,0,0,0,0,0,0,0,0,0,0,0,0,0,0,0,0,0,0,0,0,0,0,0,0,0,0,0,0,0,0,0,0,0,0,0,0,0,0,0,0,0,0,0,0],"sum_hessian":[2.805724E2,1.9237013E2,8.820226E1,1.4782593E2,4.4544216E1,3.3264355E1,5.493791E1,7.611024E1,7.171568E1,2.8646948E1,1.5897268E1,2.4761322E1,8.503032E0,7.328333E0,4.7609577E1,7.362588E1,2.4843593E0,5.780441E1,1.3911274E1,1.0459267E0,2.760102E1,8.633763E0,7.2635055E0,1.7363914E1,7.397409E0,6.471518E0,2.0315137E0,6.214289E0,1.1140432E0,4.5405186E1,2.2043924E0,3.2164413E1,4.1461468E1,1.6405418E1,4.139899E1,7.2762494E0,6.635024E0,3.855197E0,2.3745823E1,6.8223996E0,1.8113632E0,4.6738815E0,2.589624E0,9.380172E0,7.9837418E0,1.6131516E0,5.7842574E0,4.9406443E0,1.5308739E0,2.7711322E0,3.4431572E0,1.1014109E0,1.1029816E0],"tree_param":{"num_deleted":"0","num_feature":"11","num_nodes":"53","size_leaf_vector":"0"}},{"base_weights":[7.233103E-2,-1.0287153E0,6.9074386E-1,-1.1768935E0,-4.2969579E-1,-1.4403921E-1,9.6706843E-1,-1.4546593E0,-9.5261586E-1,-1.0395195E0,4.1420272E-1,4.9231565E-1,-7.352826E-1,1.2039655E0,7.1634173E-1,-3.995567E-1,-1.5547785E0,8.1922364E-1,-1.029448E0,-1.3524936E0,1.6777024E-2,-2.0350757E-1,9.443247E-1,7.0129275E-1,-5.2164966E-1,-1.2154316E0,2.6935774E-1,8.522868E-1,1.3843522E0,1.0760674E0,1.6108704E-1,2.3736054E-1,-7.020849E-1,-1.580644E0,-3.9937362E-1,-1.3541073E0,-7.59108E-1,-1.5908635E0,-3.8390905E-1,7.041262E-1,-5.117986E-1,-5.957822E-1,4.0665743E-1,1.2082255E0,1.0073341E-1,8.4090453E-1,-4.913329E-1,9.467539E-2,-1.1172603E0,-1.17444664E-1,-1.4042375E0,1.356728E0,-4.1712555E-1,1.3844274E0,4.75677E-1,7.7823794E-1,1.4771922E0,1.2577726E0,-5.181729E-1,-2.317708E-1,1.2971693E0],"categories":[],"categories_nodes":[],"categories_segments":[],"categories_sizes":[],"default_left":[1,1,1,1,1,1,1,1,1,1,1,1,1,1,1,1,1,0,1,1,1,1,1,1,1,1,1,1,1,1,1,0,0,0,0,0,0,0,0,0,0,0,0,0,0,0,0,0,0,0,0,0,0,0,0,0,0,0,0,0,0],"id":6,"left_children":[1,3,5,7,9,11,13,15,17,19,21,23,25,27,29,31,33,-1,35,37,39,41,43,45,47,49,51,53,55,57,59,-1,-1,-1,-1,-1,-1,-1,-1,-1,-1,-1,-1,-1,-1,-1,-1,-1,-1,-1,-1,-1,-1,-1,-1,-1,-1,-1,-1,-1,-1],"loss_changes":[1.923223E2,8.513535E0,4.1843933E1,3.6532135E0,1.1611382E1,1.7606339E1,7.2133102E0,2.995407E0,7.3300514E0,4.2863655E0,3.4107728E0,5.1702375E0,1.1981529E1,3.1619034E0,1.3513374E1,9.977086E-1,2.9289246E-1,0E0,3.0192795E0,1.6891556E0,1.7902449E0,1.5257223E0,1.0953269E0,3.6143093E0,1.7385571E0,3.2615376E0,7.0089006E0,4.5131073E0,1.3058243E0,1.264658E1,1.2849302E1,0E0,0E0,0E0,0E0,0E0,0E0,0E0,0E0,0E0,0E0,0E0,0E0,0E0,0E0,0E0,0E0,0E0,0E0,0E0,0E0,0E0,0E0,0E0,0E0,0E0,0E0,0E0,0E0,0E0,0E0],"parents":[2147483647,0,0,1,1,2,2,3,3,4,4,5,5,6,6,7,7,8,8,9,9,10,10,11,11,12,12,13,13,14,14,15,15,16,16,18,18,19,19,20,20,21,21,22,22,23,23,24,24,25,25,26,26,27,27,28,28,29,29,30,30],"right_children":[2,4,6,8,10,12,14,16,18,20,22,24,26,28,30,32,34,-1,36,38,40,42,44,46,48,50,52,54,56,58,60,-1,-1,-1,-1,-1,-1,-1,-1,-1,-1,-1,-1,-1,-1,-1,-1,-1,-1,-1,-1,-1,-1,-1,-1,-1,-1,-1,-1,-1,-1],"split_conditions":[1.5E0,3.5E0,1.5E0,5E-2,5.5E-1,7.5E-1,1.425E2,1.5E0,1.09E2,1.5E0,2.48E2,1.41E2,1.555E2,1.3499999E0,1.1500001E0,1.4E2,6.45E1,2.4576709E-2,1.425E2,1.59E2,1.135E2,5E-1,3.145E2,3.035E2,1.6E2,1.16E2,5.05E1,2.5E-1,2.015E2,1.5E0,1.43E2,7.120816E-3,-2.1062547E-2,-4.741932E-2,-1.1981209E-2,-4.0623218E-2,-2.277324E-2,-4.7725905E-2,-1.1517271E-2,2.1123786E-2,-1.5353958E-2,-1.7873466E-2,1.2199722E-2,3.6246765E-2,3.022002E-3,2.5227135E-2,-1.47399865E-2,2.8402617E-3,-3.3517808E-2,-3.5233398E-3,-4.2127125E-2,4.0701836E-2,-1.2513766E-2,4.1532822E-2,1.427031E-2,2.3347137E-2,4.4315763E-2,3.7733175E-2,-1.55451875E-2,-6.953124E-3,3.891508E-2],"split_indices":[10,2,2,9,9,9,7,2,3,6,4,3,7,9,9,7,0,0,7,7,3,6,4,4,7,3,0,9,4,6,3,0,0,0,0,0,0,0,0,0,0,0,0,0,0,0,0,0,0,0,0,0,0,0,0,0,0,0,0,0,0],"split_type":[0,0,0,0,0,0,0,0,0,0,0,0,0,0,0,0,0,0,0,0,0,0,0,0,0,0,0,0,0,0,0,0,0,0,0,0,0,0,0,0,0,0,0,0,0,0,0,0,0,0,0,0,0,0,0,0,0,0,0,0,0],"sum_hessian":[2.8040903E2,1.0061201E2,1.7979701E2,7.988606E1,2.0725946E1,4.4833298E1,1.3496371E2,3.3236702E1,4.6649357E1,1.1897028E1,8.8289175E0,2.1673473E1,2.3159824E1,6.744086E1,6.752286E1,3.3130474E0,2.9923655E1,1.537199E0,4.511216E1,8.961407E0,2.9356205E0,4.3621507E0,4.466767E0,1.822557E1,3.4479034E0,1.5528468E1,7.6313562E0,2.480542E1,4.2635437E1,4.040695E1,2.7115902E1,1.1362638E0,2.1767836E0,2.890845E1,1.0152066E0,1.8675406E1,2.6436754E1,6.6759787E0,2.2854283E0,1.1317699E0,1.8038508E0,2.669502E0,1.6926489E0,3.073152E0,1.393615E0,1.657963E1,1.6459397E0,2.1078207E0,1.3400826E0,2.5164251E0,1.3012043E1,2.575497E0,5.0558596E0,9.170997E0,1.5634424E1,6.9093924E0,3.5726048E1,3.646219E1,3.9447627E0,2.0739992E1,6.3759093E0],"tree_param":{"num_deleted":"0","num_feature":"11","num_nodes":"61","size_leaf_vector":"0"}},{"base_weights":[7.775743E-2,-1.0131352E0,7.0900565E-1,-1.1352189E0,-5.0636256E-1,-1.8071175E-1,9.9466777E-1,-1.168162E0,1.09568626E-1,-9.890282E-1,6.8707293E-1,3.4414357E-1,-8.803529E-1,6.9646704E-1,1.3048866E0,-3.648781E-1,-1.2015029E0,-1.3750764E0,-5.185872E-1,9.3211815E-2,1.1029296E0,8.3117205E-1,-1.427742E-1,-2.796533E-2,-1.1693087E0,7.5240695E-1,-5.981287E-1,9.472145E-1,1.3779657E0,-1.2065104E0,8.6470276E-1,-1.2186345E0,-4.0448588E-1,-1.5444722E0,-3.7233385E-1,-9.2168766E-1,4.5374003E-1,3.722327E-1,-2.3488833E-1,-5.51221E-1,1.0730778E0,-3.217777E-1,1.0122763E0,-5.8270603E-1,6.744116E-1,-1.4616414E0,4.9780732E-1,8.9636093E-1,1.6835754E-1,3.4396654E-1,-1.1646006E0,4.355239E-1,1.3048117E0,1.4445132E0,5.7543415E-1],"categories":[],"categories_nodes":[],"categories_segments":[],"categories_sizes":[],"default_left":[1,1,1,1,1,1,1,1,0,1,1,1,1,1,1,1,1,1,1,1,0,1,1,1,1,1,1,1,1,0,0,0,0,0,0,0,0,0,0,0,0,0,0,0,0,0,0,0,0,0,0,0,0,0,0],"id":7,"left_children":[1,3,5,7,9,11,13,15,-1,17,19,21,23,25,27,29,31,33,35,37,-1,39,41,43,45,47,49,51,53,-1,-1,-1,-1,-1,-1,-1,-1,-1,-1,-1,-1,-1,-1,-1,-1,-1,-1,-1,-1,-1,-1,-1,-1,-1,-1],"loss_changes":[1.9242412E2,5.7639313E0,4.51492E1,3.4807205E0,1.3176764E1,1.6404457E1,1.14951935E1,1.6971588E0,0E0,2.166875E0,1.5858388E0,6.230429E0,4.665675E0,5.556507E0,3.826294E-1,5.8178935E0,5.4647064E-1,8.015995E-1,3.8489416E0,4.452391E-1,0E0,4.9493084E0,3.166814E0,2.6738863E0,7.658617E0,5.5691757E0,2.2565699E0,2.0216694E0,1.9149246E0,0E0,0E0,0E0,0E0,0E0,0E0,0E0,0E0,0E0,0E0,0E0,0E0,0E0,0E0,0E0,0E0,0E0,0E0,0E0,0E0,0E0,0E0,0E0,0E0,0E0,0E0],"parents":[2147483647,0,0,1,1,2,2,3,3,4,4,5,5,6,6,7,7,9,9,10,10,11,11,12,12,13,13,14,14,15,15,16,16,17,17,18,18,19,19,21,21,22,22,23,23,24,24,25,25,26,26,27,27,28,28],"right_children":[2,4,6,8,10,12,14,16,-1,18,20,22,24,26,28,30,32,34,36,38,-1,40,42,44,46,48,50,52,54,-1,-1,-1,-1,-1,-1,-1,-1,-1,-1,-1,-1,-1,-1,-1,-1,-1,-1,-1,-1,-1,-1,-1,-1,-1,-1],"split_conditions":[1.5E0,3.5E0,1.5E0,1.86E2,5E-1,5E-1,5E-1,5E-1,3.2870588E-3,1.43E2,5E-1,5.55E1,5E-1,1.83E2,5E-1,5E-1,3.77E2,6.55E1,1.5E0,2.655E2,3.3087887E-2,1.975E2,1.725E2,6.15E1,1.63E2,1.5E0,2.5E0,1.425E2,1.51E2,-3.619531E-2,2.5941081E-2,-3.6559034E-2,-1.2134576E-2,-4.6334166E-2,-1.1170016E-2,-2.765063E-2,1.36122005E-2,1.11669805E-2,-7.0466497E-3,-1.653663E-2,3.2192335E-2,-9.653331E-3,3.0368289E-2,-1.748118E-2,2.0232348E-2,-4.384924E-2,1.4934219E-2,2.6890827E-2,5.050726E-3,1.0318996E-2,-3.493802E-2,1.3065716E-2,3.9144352E-2,4.3335397E-2,1.7263023E-2],"split_indices":[10,2,2,7,8,8,8,10,0,7,6,0,1,7,1,2,4,0,6,4,0,4,7,0,7,6,2,7,7,0,0,0,0,0,0,0,0,0,0,0,0,0,0,0,0,0,0,0,0,0,0,0,0,0,0],"split_type":[0,0,0,0,0,0,0,0,0,0,0,0,0,0,0,0,0,0,0,0,0,0,0,0,0,0,0,0,0,0,0,0,0,0,0,0,0,0,0,0,0,0,0,0,0,0,0,0,0,0,0,0,0,0,0],"sum_hessian":[2.7738968E2,1.0145504E2,1.7593466E2,8.07596E1,2.0695436E1,4.2848133E1,1.3308652E2,7.873739E1,2.022214E0,1.4857741E1,5.837696E0,2.477248E1,1.8075651E1,6.951229E1,6.3574234E1,3.6138067E0,7.512358E1,7.10465E0,7.7530913E0,2.9084492E0,2.9292467E0,1.2031368E1,1.2741112E1,4.853916E0,1.3221736E1,6.7034515E1,2.4777756E0,1.3154321E1,5.0419914E1,2.1564841E0,1.4573226E0,7.302495E1,2.0986345E0,5.615723E0,1.4889269E0,5.5176883E0,2.235403E0,1.4990916E0,1.4093575E0,1.601394E0,1.0429975E1,1.1656125E1,1.0849867E0,2.8071754E0,2.0467408E0,1.1354031E1,1.867705E0,5.3350243E1,1.3684271E1,1.0779074E0,1.3998682E0,6.323647E0,6.8306737E0,4.5820446E1,4.599469E0],"tree_param":{"num_deleted":"0","num_feature":"11","num_nodes":"55","size_leaf_vector":"0"}},{"base_weights":[5.3827107E-2,-9.9018085E-1,6.2367684E-1,-1.1126741E0,-4.8848596E-1,-1.4149384E-1,8.862962E-1,-1.135838E0,-7.389095E-2,-1.004406E0,8.02343E-1,4.5741946E-1,-9.185571E-1,6.1050874E-1,1.1771673E0,-1.1562904E0,-7.92028E-2,-1.3198948E0,-6.143967E-1,1.8497507E-1,1.2757833E0,-1.1799868E0,6.2246215E-1,-1.1001965E0,2.2184563E-1,7.5800395E-1,3.5160467E-2,1.272761E0,5.8841604E-1,-9.575354E-1,-1.3508352E0,-1.5055948E0,-2.0952897E-1,-8.9973044E-1,1.4357798E-1,5.6747466E-1,-4.3845856E-1,8.033382E-1,-5.368611E-1,-1.4575137E-1,-1.4469006E0,7.5032556E-1,-5.467733E-1,4.611709E-1,1.1974313E0,-1.1813282E0,8.8798445E-1,6.2912035E-1,1.3643681E0,-1.1648641E0,9.4795233E-1],"categories":[],"categories_nodes":[],"categories_segments":[],"categories_sizes":[],"default_left":[1,1,1,1,1,1,1,1,0,1,1,1,1,1,1,1,0,1,1,1,0,0,1,1,1,1,1,1,1,0,0,0,0,0,0,0,0,0,0,0,0,0,0,0,0,0,0,0,0,0,0],"id":8,"left_children":[1,3,5,7,9,11,13,15,-1,17,19,21,23,25,27,29,-1,31,33,35,-1,-1,37,39,41,43,45,47,49,-1,-1,-1,-1,-1,-1,-1,-1,-1,-1,-1,-1,-1,-1,-1,-1,-1,-1,-1,-1,-1,-1],"loss_changes":[1.6429514E2,5.4501953E0,3.6012917E1,1.7835083E0,1.4739557E1,2.2058868E1,9.958023E0,1.5475159E0,0E0,1.0829678E0,1.6727581E0,8.010828E0,4.505041E0,5.947254E0,2.8361053E0,1.5807343E0,0E0,1.2594805E0,2.0224662E0,1.2036064E0,0E0,0E0,5.69763E0,5.716322E0,1.8963015E0,6.7500534E0,1.7039127E1,2.3221283E0,7.8855247E0,0E0,0E0,0E0,0E0,0E0,0E0,0E0,0E0,0E0,0E0,0E0,0E0,0E0,0E0,0E0,0E0,0E0,0E0,0E0,0E0,0E0,0E0],"parents":[2147483647,0,0,1,1,2,2,3,3,4,4,5,5,6,6,7,7,9,9,10,10,11,11,12,12,13,13,14,14,15,15,17,17,18,18,19,19,22,22,23,23,24,24,25,25,26,26,27,27,28,28],"right_children":[2,4,6,8,10,12,14,16,-1,18,20,22,24,26,28,30,-1,32,34,36,-1,-1,38,40,42,44,46,48,50,-1,-1,-1,-1,-1,-1,-1,-1,-1,-1,-1,-1,-1,-1,-1,-1,-1,-1,-1,-1,-1,-1],"split_conditions":[1.5E0,3.5E0,1.5E0,1.86E2,5E-1,5E-1,5E-1,3.77E2,-2.2167284E-3,1.43E2,1.5E0,1.18E2,1.625E2,1.5E0,1.515E2,2.435E2,-2.376084E-3,6.55E1,1.5E0,2.655E2,3.82735E-2,-3.5399605E-2,1.5E0,5E-1,6E1,5E-1,5.65E1,5E-1,1.525E2,-2.8726062E-2,-4.0525056E-2,-4.5167845E-2,-6.285869E-3,-2.6991913E-2,4.3073394E-3,1.702424E-2,-1.3153757E-2,2.4100147E-2,-1.6105833E-2,-4.372541E-3,-4.3407016E-2,2.2509767E-2,-1.6403198E-2,1.3835127E-2,3.592294E-2,-3.5439845E-2,2.6639532E-2,1.887361E-2,4.0931042E-2,-3.494592E-2,2.843857E-2],"split_indices":[10,2,2,7,8,8,8,4,0,7,6,7,7,6,7,4,0,0,6,4,0,0,6,1,0,6,0,1,7,0,0,0,0,0,0,0,0,0,0,0,0,0,0,0,0,0,0,0,0,0,0],"split_type":[0,0,0,0,0,0,0,0,0,0,0,0,0,0,0,0,0,0,0,0,0,0,0,0,0,0,0,0,0,0,0,0,0,0,0,0,0,0,0,0,0,0,0,0,0,0,0,0,0,0,0],"sum_hessian":[2.7412183E2,9.653139E1,1.7759045E2,7.660883E1,1.9922556E1,4.54955E1,1.3209496E2,7.48464E1,1.7624378E0,1.4392168E1,5.5303874E0,2.5925243E1,1.9570257E1,6.939625E1,6.26987E1,7.333265E1,1.5137495E0,6.638138E0,7.75403E0,3.003941E0,2.5264463E0,1.8107742E0,2.4114468E1,1.6911852E1,2.6584055E0,5.498335E1,1.4412901E1,5.2941032E1,9.7576685E0,3.920309E1,3.4129555E1,5.382081E0,1.2560568E0,5.497514E0,2.2565162E0,1.917341E0,1.0866002E0,2.1125551E1,2.9889176E0,4.8848076E0,1.2027044E1,1.5893886E0,1.0690168E0,3.4039295E1,2.0944056E1,5.7812257E0,8.631675E0,7.5763626E0,4.536467E1,1.2792917E0,8.478377E0],"tree_param":{"num_deleted":"0","num_feature":"11","num_nodes":"51","size_leaf_vector":"0"}},{"base_weights":[3.7560936E-2,-9.6578646E-1,5.951248E-1,-1.3244683E0,-6.7371714E-1,-1.3011672E-1,8.529261E-1,-1.4233568E0,-7.389162E-1,-8.139182E-1,-2.931723E-2,4.3809235E-1,-6.798458E-1,5.7372105E-1,1.1194457E0,-6.2636584E-1,-1.4718044E0,-1.0633993E0,2.6086738E-2,-1.2396665E0,-4.7726306E-1,8.990575E-1,-4.5803493E-1,6.086772E-1,-5.791652E-1,-1.1243652E0,3.2032144E-1,8.5695523E-1,-4.66914E-1,7.6352805E-1,1.2858291E0,-8.0248266E-1,-1.3531743E-1,-1.4944054E0,-4.2007715E-1,-1.3238974E0,-7.2862506E-2,7.1953803E-1,-6.456465E-1,-4.3894312E-1,-1.3433361E0,-8.600997E-2,-1.2332954E0,-1.1330538E0,1.3078132E-1,7.449402E-1,-3.9266643E-1,1.2522627E-1,-1.1213768E0,5.822173E-2,-1.3493636E0,1.3030398E0,-3.3879113E-1,9.931306E-1,-3.676658E-1,2.913688E-1,-1.1882459E0,1.2925776E0,4.6059787E-1,1.3366961E0,-1.0406865E-1],"categories":[],"categories_nodes":[],"categories_segments":[],"categories_sizes":[],"default_left":[1,1,1,1,1,1,1,1,1,1,1,1,1,1,1,1,1,1,1,1,1,0,1,1,1,1,1,1,1,1,1,0,0,0,0,0,0,0,0,0,0,0,0,0,0,0,0,0,0,0,0,0,0,0,0,0,0,0,0,0,0],"id":9,"left_children":[1,3,5,7,9,11,13,15,17,19,21,23,25,27,29,31,33,35,37,39,41,-1,43,45,47,49,51,53,55,57,59,-1,-1,-1,-1,-1,-1,-1,-1,-1,-1,-1,-1,-1,-1,-1,-1,-1,-1,-1,-1,-1,-1,-1,-1,-1,-1,-1,-1,-1,-1],"loss_changes":[1.5522672E2,9.492401E0,3.3450542E1,1.4645233E0,5.096306E0,1.5175874E1,9.156975E0,4.7190857E-1,2.1024709E0,6.07448E0,4.8553276E0,4.522402E0,1.1297609E1,1.9960388E1,2.9457397E0,2.2085714E-1,1.6349792E-1,1.4240537E0,2.0787783E0,1.0631733E0,8.05738E0,0E0,3.4470837E0,3.1669645E0,1.6541376E0,4.6692924E0,5.8485274E0,9.123253E0,8.466282E0,3.1851883E0,3.2310257E0,0E0,0E0,0E0,0E0,0E0,0E0,0E0,0E0,0E0,0E0,0E0,0E0,0E0,0E0,0E0,0E0,0E0,0E0,0E0,0E0,0E0,0E0,0E0,0E0,0E0,0E0,0E0,0E0,0E0,0E0],"parents":[2147483647,0,0,1,1,2,2,3,3,4,4,5,5,6,6,7,7,8,8,9,9,10,10,11,11,12,12,13,13,14,14,15,15,16,16,17,17,18,18,19,19,20,20,22,22,23,23,24,24,25,25,26,26,27,27,28,28,29,29,30,30],"right_children":[2,4,6,8,10,12,14,16,18,20,22,24,26,28,30,32,34,36,38,40,42,-1,44,46,48,50,52,54,56,58,60,-1,-1,-1,-1,-1,-1,-1,-1,-1,-1,-1,-1,-1,-1,-1,-1,-1,-1,-1,-1,-1,-1,-1,-1,-1,-1,-1,-1,-1,-1],"split_conditions":[1.5E0,5E-2,1.5E0,1.5E0,3.5E0,7.5E-1,3.5E0,1.5E0,3.5E0,1.425E2,1.33E2,1.45E2,1.565E2,1.95E0,1.25E0,2.385E2,6.35E1,1.39E2,1.59E2,1.19E2,1.465E2,2.6971724E-2,1.43E2,3.035E2,1.6E2,1.16E2,5.05E1,1.5E0,1.51E2,1.5E-1,7.05E1,-2.407448E-2,-4.059523E-3,-4.483216E-2,-1.2602314E-2,-3.971692E-2,-2.185875E-3,2.158614E-2,-1.9369395E-2,-1.3168293E-2,-4.0300082E-2,-2.580299E-3,-3.699886E-2,-3.3991612E-2,3.9234394E-3,2.2348206E-2,-1.1779993E-2,3.756788E-3,-3.36413E-2,1.746652E-3,-4.0480904E-2,3.9091192E-2,-1.0163734E-2,2.9793918E-2,-1.1029974E-2,8.741064E-3,-3.5647377E-2,3.877733E-2,1.3817936E-2,4.0100884E-2,-3.1220594E-3],"split_indices":[10,9,2,6,2,9,2,2,2,7,7,3,7,9,9,4,0,3,7,3,3,0,7,4,7,3,0,6,7,9,0,0,0,0,0,0,0,0,0,0,0,0,0,0,0,0,0,0,0,0,0,0,0,0,0,0,0,0,0,0,0],"split_type":[0,0,0,0,0,0,0,0,0,0,0,0,0,0,0,0,0,0,0,0,0,0,0,0,0,0,0,0,0,0,0,0,0,0,0,0,0,0,0,0,0,0,0,0,0,0,0,0,0,0,0,0,0,0,0,0,0,0,0,0,0],"sum_hessian":[2.7544547E2,9.8128716E1,1.7731676E2,4.2455532E1,5.5673183E1,4.6630898E1,1.3068585E2,3.5097454E1,7.358077E0,4.550884E1,1.0164343E1,2.3029894E1,2.3601004E1,6.536371E1,6.532214E1,2.809433E0,3.228802E1,4.8927236E0,2.4653535E0,1.8910948E1,2.659789E1,2.8644283E0,7.2999144E0,2.0066563E1,2.9633307E0,1.6253181E1,7.3478236E0,5.151827E1,1.3845442E1,2.2589333E1,4.2732815E1,1.6010027E0,1.2084303E0,3.1196718E1,1.0913043E0,3.6074636E0,1.2852601E0,1.1780496E0,1.2873039E0,2.767718E0,1.614323E1,1.8261286E1,8.336605E0,2.97038E0,4.3295345E0,1.7888369E1,2.178194E0,1.6234016E0,1.3399291E0,2.7165067E0,1.3536674E1,2.557581E0,4.7902427E0,4.653293E1,4.985339E0,7.0404286E0,6.805013E0,7.035439E0,1.5553892E1,4.1261032E1,1.4717826E0],"tree_param":{"num_deleted":"0","num_feature":"11","num_nodes":"61","size_leaf_vector":"0"}},{"base_weights":[5.8342643E-2,-2.6184815E-1,7.4868387E-1,-5.2747384E-2,-9.429755E-1,4.240304E-3,1.2297782E0,-3.823511E-1,3.0357423E-1,-1.5007734E0,-6.805977E-1,-4.0132815E-1,6.454068E-1,3.734122E-1,1.3880565E0,1.308823E-1,-6.99669E-1,5.9586173E-1,-8.793049E-1,-6.258002E-1,-1.6188598E0,-1.1227492E0,-1.9042322E-1,-1.162308E0,-2.1521685E-1,-8.244547E-3,1.0828252E0,6.0225314E-1,-6.9723886E-1,6.072663E-1,1.4642192E0,-4.4418517E-1,7.4526954E-1,-8.8794726E-1,5.446982E-1,4.5524586E-2,1.0337979E0,2.0382436E-1,-1.121459E0,-1.4546324E0,-1.7435117E-1,3.9100623E-1,-6.729385E-1,4.4460436E-3,-9.640958E-1,9.850876E-1,-4.0264404E-1,1.3452581E0,3.5382724E-1,-4.9552625E-1,1.1077847E0,-1.7969446E-1,1.029506E0,1.4868468E0,3.056667E-1],"categories":[],"categories_nodes":[],"categories_segments":[],"categories_sizes":[],"default_left":[1,1,1,1,1,1,1,1,1,1,1,1,1,1,1,1,1,1,1,0,0,1,1,0,1,1,1,1,0,1,1,0,0,0,0,0,0,0,0,0,0,0,0,0,0,0,0,0,0,0,0,0,0,0,0],"id":10,"left_children":[1,3,5,7,9,11,13,15,17,19,21,23,25,27,29,31,33,35,37,-1,-1,39,41,-1,43,45,47,49,-1,51,53,-1,-1,-1,-1,-1,-1,-1,-1,-1,-1,-1,-1,-1,-1,-1,-1,-1,-1,-1,-1,-1,-1,-1,-1],"loss_changes":[6.0558666E1,2.6625877E1,3.1077206E1,1.7070774E1,5.4084663E0,9.37909E0,6.626808E0,1.23768835E1,2.4700674E1,3.5333633E-1,6.6585493E0,2.8797662E0,4.0039353E0,2.7698293E0,1.7347107E0,1.08114395E1,1.1441875E1,1.3610661E1,3.9685526E0,0E0,0E0,4.92947E0,4.819828E0,0E0,3.1271996E0,2.980021E0,1.1269035E0,5.232091E0,0E0,2.055814E0,5.808487E-1,0E0,0E0,0E0,0E0,0E0,0E0,0E0,0E0,0E0,0E0,0E0,0E0,0E0,0E0,0E0,0E0,0E0,0E0,0E0,0E0,0E0,0E0,0E0,0E0],"parents":[2147483647,0,0,1,1,2,2,3,3,4,4,5,5,6,6,7,7,8,8,9,9,10,10,11,11,12,12,13,13,14,14,15,15,16,16,17,17,18,18,21,21,22,22,24,24,25,25,26,26,27,27,29,29,30,30],"right_children":[2,4,6,8,10,12,14,16,18,20,22,24,26,28,30,32,34,36,38,-1,-1,40,42,-1,44,46,48,50,-1,52,54,-1,-1,-1,-1,-1,-1,-1,-1,-1,-1,-1,-1,-1,-1,-1,-1,-1,-1,-1,-1,-1,-1,-1,-1],"split_conditions":[3.5E0,1.8499999E0,5E-1,5E-1,5E-1,1.7E0,5E-1,5E-1,1.5E0,1.26E2,1.5E0,5E-1,2.365E2,3.395E2,5.5E-1,5E-2,1.795E2,1.5E0,1.28E2,-1.8774005E-2,-4.8565794E-2,1.445E2,1.51E2,-3.486924E-2,2.935E2,1.235E2,2.98E2,5.3E1,-2.0917166E-2,5E-1,7.3E1,-1.3325554E-2,2.2358086E-2,-2.6638417E-2,1.6340945E-2,1.3657375E-3,3.1013936E-2,6.1147306E-3,-3.364377E-2,-4.363897E-2,-5.230535E-3,1.1730187E-2,-2.0188155E-2,1.3338131E-4,-2.8922873E-2,2.9552627E-2,-1.2079321E-2,4.0357742E-2,1.0614817E-2,-1.4865788E-2,3.3233542E-2,-5.3908336E-3,3.0885179E-2,4.4605404E-2,9.17E-3],"split_indices":[2,9,8,6,1,9,1,1,6,7,2,1,4,4,9,9,7,2,7,0,0,7,7,0,4,7,4,0,0,6,0,0,0,0,0,0,0,0,0,0,0,0,0,0,0,0,0,0,0,0,0,0,0,0,0],"split_type":[0,0,0,0,0,0,0,0,0,0,0,0,0,0,0,0,0,0,0,0,0,0,0,0,0,0,0,0,0,0,0,0,0,0,0,0,0,0,0,0,0,0,0,0,0,0,0,0,0,0,0,0,0,0,0],"sum_hessian":[2.720835E2,1.8629686E2,8.578663E1,1.4336299E2,4.2933872E1,3.4072216E1,5.171441E1,7.443565E1,6.892733E1,1.222482E1,3.0709051E1,2.1099709E1,1.2972508E1,8.591146E0,4.3123264E1,2.866313E1,4.5772526E1,5.56681E1,1.3259234E1,2.2027583E0,1.0022062E1,1.5466928E1,1.5242125E1,3.115537E0,1.798417E1,5.594132E0,7.3783765E0,7.4386897E0,1.1524568E0,4.6301417E0,3.8493122E1,1.4948416E1,1.3714714E1,4.0005882E1,5.766642E0,2.515755E1,3.0510548E1,2.4516323E0,1.0807602E1,1.1062077E1,4.404851E0,6.9985466E0,8.243578E0,1.4674018E1,3.3101537E0,1.1642271E0,4.429905E0,4.8037252E0,2.5746512E0,2.351695E0,5.0869946E0,1.8173783E0,2.8127635E0,3.747778E1,1.0153428E0],"tree_param":{"num_deleted":"0","num_feature":"11","num_nodes":"55","size_leaf_vector":"0"}},{"base_weights":[7.248196E-2,-9.30183E-1,6.3208437E-1,-1.0561725E0,-3.9129686E-1,-8.9065775E-2,8.642291E-1,-4.563278E-1,-1.1489415E0,-9.119567E-1,7.7495784E-1,4.3128037E-1,-8.1113267E-1,5.631673E-1,1.1910918E0,8.847739E-1,-6.782212E-1,5.487029E-3,-1.2089403E0,-1.3574011E0,-4.2873722E-1,9.753228E-1,-1.225218E-1,7.5392306E-1,-7.0689464E-1,6.413332E-2,-1.1437076E0,3.662548E-1,1.3166075E0,7.06174E-1,1.319341E0,-8.381138E-1,9.5480286E-2,-1.0859922E0,1.2632085E0,-1.2319322E0,1.0756554E-1,3.3257276E-1,-8.814356E-1,3.813299E-1,1.115851E0,9.1084224E-1,-3.3921784E-1,-1.1460589E0,-2.9488826E-1,-4.406842E-1,6.5969884E-1,-1.4379622E0,4.6182784E-1,5.572319E-1,-3.320275E-1,1.3778828E0,2.8343016E-1,-7.6855636E-1,8.829468E-1,1.3694589E0,6.1147696E-1],"categories":[],"categories_nodes":[],"categories_segments":[],"categories_sizes":[],"default_left":[1,1,1,1,1,1,1,1,1,1,1,1,1,1,1,0,1,1,1,0,1,1,0,1,1,1,1,1,1,1,1,0,0,0,0,0,0,0,0,0,0,0,0,0,0,0,0,0,0,0,0,0,0,0,0,0,0],"id":11,"left_children":[1,3,5,7,9,11,13,15,17,19,21,23,25,27,29,-1,31,33,35,-1,37,39,-1,41,43,45,47,49,51,53,55,-1,-1,-1,-1,-1,-1,-1,-1,-1,-1,-1,-1,-1,-1,-1,-1,-1,-1,-1,-1,-1,-1,-1,-1,-1,-1],"loss_changes":[1.540599E2,6.266136E0,2.9565216E1,3.8801193E0,1.2991377E1,1.6806763E1,1.2450867E1,4.2484646E0,4.708931E0,2.5275183E0,1.3395648E0,1.0120754E1,5.5143204E0,1.0097076E1,2.9884644E0,0E0,1.4514222E0,7.342791E0,2.0860672E0,0E0,3.1850178E0,4.6791553E-2,0E0,3.881403E0,7.988093E-1,2.1227646E0,7.088297E0,7.9087157E0,5.2043724E-1,4.676555E0,8.902817E-1,0E0,0E0,0E0,0E0,0E0,0E0,0E0,0E0,0E0,0E0,0E0,0E0,0E0,0E0,0E0,0E0,0E0,0E0,0E0,0E0,0E0,0E0,0E0,0E0,0E0,0E0],"parents":[2147483647,0,0,1,1,2,2,3,3,4,4,5,5,6,6,7,7,8,8,9,9,10,10,11,11,12,12,13,13,14,14,16,16,17,17,18,18,20,20,21,21,23,23,24,24,25,25,26,26,27,27,28,28,29,29,30,30],"right_children":[2,4,6,8,10,12,14,16,18,20,22,24,26,28,30,-1,32,34,36,-1,38,40,-1,42,44,46,48,50,52,54,56,-1,-1,-1,-1,-1,-1,-1,-1,-1,-1,-1,-1,-1,-1,-1,-1,-1,-1,-1,-1,-1,-1,-1,-1,-1,-1],"split_conditions":[1.5E0,3.5E0,1.5E0,1.19E2,5E-1,5E-1,5E-1,1.675E2,5E-1,1.43E2,3.12E2,1.425E2,5E-1,1.42E2,5E-1,2.6543217E-2,5E-1,5E-1,1.86E2,-4.0722035E-2,1.21E2,2.215E2,-3.675654E-3,6.45E1,2.275E2,1.51E2,1.63E2,1.5E0,1.71E2,1.885E2,1.51E2,-2.5143413E-2,2.8644085E-3,-3.2579765E-2,3.7896253E-2,-3.6957964E-2,3.2269661E-3,9.977182E-3,-2.6443066E-2,1.1439896E-2,3.347553E-2,2.7325267E-2,-1.0176535E-2,-3.4381766E-2,-8.846647E-3,-1.3220525E-2,1.9790964E-2,-4.3138865E-2,1.3854835E-2,1.6716957E-2,-9.960825E-3,4.1336484E-2,8.502904E-3,-2.305669E-2,2.6488403E-2,4.1083768E-2,1.834431E-2],"split_indices":[10,2,2,3,8,8,8,4,10,7,4,3,1,3,1,0,8,2,7,0,3,4,0,0,4,7,7,6,3,4,7,0,0,0,0,0,0,0,0,0,0,0,0,0,0,0,0,0,0,0,0,0,0,0,0,0,0],"split_type":[0,0,0,0,0,0,0,0,0,0,0,0,0,0,0,0,0,0,0,0,0,0,0,0,0,0,0,0,0,0,0,0,0,0,0,0,0,0,0,0,0,0,0,0,0,0,0,0,0,0,0,0,0,0,0,0,0],"sum_hessian":[2.725228E2,9.738015E1,1.7514264E2,7.814925E1,1.9230904E1,4.2800514E1,1.3234213E2,1.1260135E1,6.6889114E1,1.3446105E1,5.784799E0,2.5108896E1,1.7691618E1,7.0307396E1,6.2034733E1,1.1744566E0,1.0085678E1,3.3495464E0,6.3539566E1,6.0551925E0,7.3909125E0,4.658124E0,1.126675E0,1.9826273E1,5.282624E0,5.093577E0,1.2598041E1,5.691794E1,1.3389456E1,1.4335944E1,4.7698788E1,8.289355E0,1.7963234E0,1.8663905E0,1.4831562E0,6.2512074E1,1.0274909E0,2.8549883E0,4.5359244E0,1.6016644E0,3.0564597E0,1.7483326E1,2.3429468E0,1.6946331E0,3.5879908E0,2.897573E0,2.196004E0,1.0734962E1,1.8630781E0,4.4852875E1,1.20650625E1,1.2324861E1,1.0645952E0,1.1761532E0,1.3159791E1,4.3672092E1,4.0266976E0],"tree_param":{"num_deleted":"0","num_feature":"11","num_nodes":"57","size_leaf_vector":"0"}},{"base_weights":[6.1252978E-2,-9.2180777E-1,5.91924E-1,-1.3169762E0,-6.18602E-1,-1.2860657E-1,8.344738E-1,-4.50224E-1,-1.3747517E0,-8.965197E-1,-1.5338151E-1,4.7260892E-1,-9.4474316E-1,5.4136425E-1,1.1431569E0,5.394434E-2,-7.3259485E-1,-1.425567E0,-5.2108437E-1,1.3856032E-1,-1.1944875E0,-5.505496E-1,9.179173E-1,8.082632E-1,-6.33221E-1,-3.3674002E-1,-1.1823912E0,1.1778208E0,1.483303E-1,6.613814E-1,1.2515526E0,-1.4480286E0,-3.387449E-1,2.561917E-1,-1.0170952E0,5.307195E-1,-8.284548E-1,-1.546633E-1,-1.2979805E0,-1.2283748E0,-2.1540512E-1,-8.597222E-2,1.1605005E0,1.3082504E0,4.936677E-1,-1.1937276E0,-1.6425228E-1,3.7443343E-1,-7.7566427E-1,-1.2835715E0,-8.19853E-2,4.4539526E-1,1.2153647E0,-1.7595567E-1,1.4213074E0,-7.556414E-1,8.51516E-1,8.051087E-1,1.3450385E0],"categories":[],"categories_nodes":[],"categories_segments":[],"categories_sizes":[],"default_left":[1,1,1,1,1,1,1,1,1,1,1,1,1,1,1,0,0,1,1,1,1,1,1,1,1,1,1,1,1,1,1,0,0,0,0,0,0,0,0,0,0,0,0,0,0,0,0,0,0,0,0,0,0,0,0,0,0,0,0],"id":12,"left_children":[1,3,5,7,9,11,13,15,17,19,21,23,25,27,29,-1,-1,31,33,35,37,39,41,43,45,47,49,51,53,55,57,-1,-1,-1,-1,-1,-1,-1,-1,-1,-1,-1,-1,-1,-1,-1,-1,-1,-1,-1,-1,-1,-1,-1,-1,-1,-1,-1,-1],"loss_changes":[1.4359819E2,1.0750404E1,3.1336254E1,1.4352493E0,7.1678333E0,2.2953485E1,1.1489067E1,6.161479E-1,9.0426636E-1,1.1011181E1,1.00094385E1,1.0562918E1,2.4613838E0,1.7471342E1,2.5291061E0,0E0,0E0,3.7026978E-1,1.6906579E0,3.7602801E0,2.7488441E0,3.5792742E0,1.6623068E0,2.690815E0,1.6087673E0,2.462945E0,1.4346638E0,1.9527817E-1,1.8725327E1,4.3956757E0,1.0603714E0,0E0,0E0,0E0,0E0,0E0,0E0,0E0,0E0,0E0,0E0,0E0,0E0,0E0,0E0,0E0,0E0,0E0,0E0,0E0,0E0,0E0,0E0,0E0,0E0,0E0,0E0,0E0,0E0],"parents":[2147483647,0,0,1,1,2,2,3,3,4,4,5,5,6,6,7,7,8,8,9,9,10,10,11,11,12,12,13,13,14,14,17,17,18,18,19,19,20,20,21,21,22,22,23,23,24,24,25,25,26,26,27,27,28,28,29,29,30,30],"right_children":[2,4,6,8,10,12,14,16,18,20,22,24,26,28,30,-1,-1,32,34,36,38,40,42,44,46,48,50,52,54,56,58,-1,-1,-1,-1,-1,-1,-1,-1,-1,-1,-1,-1,-1,-1,-1,-1,-1,-1,-1,-1,-1,-1,-1,-1,-1,-1,-1,-1],"split_conditions":[1.5E0,5E-2,1.5E0,1.5E0,2.5E0,5E-1,5E-1,4.65E1,5E-1,6.5E-1,5E-1,1.425E2,4.5000002E-1,2.5E-1,5E-1,1.6183303E-3,-2.1977846E-2,6.45E1,1.31E2,1.385E2,1.13E2,5E-1,3.5E0,5E-1,2.275E2,2.385E2,3.6999998E0,1.09E2,1.42E2,1.885E2,3.5E0,-4.3440856E-2,-1.0162347E-2,7.6857507E-3,-3.0512856E-2,1.5921585E-2,-2.4853643E-2,-4.639899E-3,-3.8939416E-2,-3.6851246E-2,-6.4621535E-3,-2.5791666E-3,3.4815013E-2,3.9247513E-2,1.481003E-2,-3.5811827E-2,-4.927568E-3,1.1233003E-2,-2.3269927E-2,-3.8507145E-2,-2.4595591E-3,1.3361857E-2,3.646094E-2,-5.2786698E-3,4.2639222E-2,-2.266924E-2,2.554548E-2,2.415326E-2,4.0351156E-2],"split_indices":[10,9,2,2,2,8,8,0,8,9,8,3,9,9,1,0,0,0,3,3,3,1,2,1,4,4,9,3,3,4,2,0,0,0,0,0,0,0,0,0,0,0,0,0,0,0,0,0,0,0,0,0,0,0,0,0,0,0,0],"split_type":[0,0,0,0,0,0,0,0,0,0,0,0,0,0,0,0,0,0,0,0,0,0,0,0,0,0,0,0,0,0,0,0,0,0,0,0,0,0,0,0,0,0,0,0,0,0,0,0,0,0,0,0,0,0,0,0,0,0,0],"sum_hessian":[2.7321417E2,9.5522675E1,1.776915E2,4.0020462E1,5.5502216E1,4.486954E1,1.3282196E2,3.0504258E0,3.6970036E1,3.4165203E1,2.1337013E1,2.6079054E1,1.8790487E1,6.954213E1,6.3279827E1,1.3855352E0,1.6648904E0,3.4260704E1,2.709334E0,7.756314E0,2.6408888E1,1.5920731E1,5.4162827E0,2.0212893E1,5.866162E0,5.959799E0,1.2830688E1,2.5787151E1,4.3754974E1,1.2926823E1,5.0353004E1,3.324135E1,1.0193537E0,1.2437716E0,1.4655623E0,5.839404E0,1.9169095E0,2.6163278E0,2.379256E1,4.385634E0,1.1535096E1,1.1797371E0,4.2365456E0,6.586477E0,1.3626416E1,1.9682717E0,3.89789E0,2.330577E0,3.629222E0,1.1597837E1,1.2328517E0,1.884605E0,2.3902546E1,3.5558388E1,8.196585E0,1.1774386E0,1.1749384E1,1.0382636E1,3.997037E1],"tree_param":{"num_deleted":"0","num_feature":"11","num_nodes":"59","size_leaf_vector":"0"}},{"base_weights":[7.756719E-2,-8.8024145E-1,6.0139674E-1,-1.0222805E0,-3.2855552E-1,-1.0559861E-1,8.3728427E-1,-7.930305E-2,-1.0673355E0,-6.598079E-1,4.207891E-1,-5.911622E-1,4.8080367E-1,1.0925612E0,5.7969546E-1,-1.0573931E0,9.830374E-1,-5.468348E-1,-1.1501539E0,-1.1703622E0,-2.0887493E-1,8.714258E-1,-2.1105492E-1,2.1224107E-1,-9.632377E-1,1.1087188E0,4.6288002E-2,4.229124E-1,1.240878E0,7.772435E-1,-1.1390961E-1,8.733118E-1,-7.825194E-1,-8.429468E-1,-1.2837067E0,-7.8204423E-1,2.610989E-1,2.2357765E-1,1.0370386E0,4.828436E-1,-7.4870026E-1,-9.6427196E-1,5.312835E-1,-1.1041814E0,-9.6368045E-2,1.2679106E0,-1.4413752E-2,-8.4985524E-1,5.107347E-1,-6.608205E-1,6.1675495E-1,2.0413452E-1,1.2970351E0,3.5473332E-1,1.2782043E0,-5.787502E-1,1.2902645E0],"categories":[],"categories_nodes":[],"categories_segments":[],"categories_sizes":[],"default_left":[1,1,1,1,1,1,1,1,1,1,1,1,1,1,1,0,0,1,1,0,1,1,1,1,1,1,1,1,1,1,1,0,0,0,0,0,0,0,0,0,0,0,0,0,0,0,0,0,0,0,0,0,0,0,0,0,0],"id":13,"left_children":[1,3,5,7,9,11,13,15,17,19,21,23,25,27,29,-1,-1,31,33,-1,35,37,39,41,43,45,47,49,51,53,55,-1,-1,-1,-1,-1,-1,-1,-1,-1,-1,-1,-1,-1,-1,-1,-1,-1,-1,-1,-1,-1,-1,-1,-1,-1,-1],"loss_changes":[1.3793823E2,7.2833405E0,2.971347E1,3.18042E0,5.585067E0,1.3191039E1,8.1326065E0,5.803266E0,2.5293198E0,3.2588115E0,2.2240477E0,7.7508745E0,5.701212E0,6.0129623E0,9.472319E0,0E0,0E0,4.687705E0,1.47406E0,0E0,2.7086651E0,2.3778296E-1,1.7746434E0,3.8193154E0,2.0237713E0,1.5522194E0,6.0548E0,3.233613E0,2.842598E0,1.0855839E1,1.1225223E1,0E0,0E0,0E0,0E0,0E0,0E0,0E0,0E0,0E0,0E0,0E0,0E0,0E0,0E0,0E0,0E0,0E0,0E0,0E0,0E0,0E0,0E0,0E0,0E0,0E0,0E0],"parents":[2147483647,0,0,1,1,2,2,3,3,4,4,5,5,6,6,7,7,8,8,9,9,10,10,11,11,12,12,13,13,14,14,17,17,18,18,20,20,21,21,22,22,23,23,24,24,25,25,26,26,27,27,28,28,29,29,30,30],"right_children":[2,4,6,8,10,12,14,16,18,20,22,24,26,28,30,-1,-1,32,34,-1,36,38,40,42,44,46,48,50,52,54,56,-1,-1,-1,-1,-1,-1,-1,-1,-1,-1,-1,-1,-1,-1,-1,-1,-1,-1,-1,-1,-1,-1,-1,-1,-1,-1],"split_conditions":[1.5E0,3.5E0,1.5E0,5E-1,1.5E0,1.565E2,1.425E2,5E-1,1.19E2,5.05E1,1.31E2,1.215E2,5.05E1,5E-1,1.5E0,-3.1721793E-2,2.9491121E-2,1.635E2,1.5E0,-3.5110865E-2,2.245E2,1.38E2,1.365E2,1.205E2,6.35E1,1.45E2,1.265E2,1.925E2,2.5E0,5E-1,1.48E2,2.6199354E-2,-2.3475582E-2,-2.5288405E-2,-3.8511198E-2,-2.3461327E-2,7.832967E-3,6.7073293E-3,3.1111157E-2,1.4485308E-2,-2.2461006E-2,-2.8928159E-2,1.5938504E-2,-3.312544E-2,-2.8910413E-3,3.803732E-2,-4.3241255E-4,-2.5495656E-2,1.532204E-2,-1.9824615E-2,1.8502649E-2,6.1240355E-3,3.8911052E-2,1.0642E-2,3.834613E-2,-1.7362505E-2,3.8707934E-2],"split_indices":[10,2,2,10,6,7,7,2,3,0,3,3,0,1,6,0,0,4,2,0,4,7,7,7,0,3,3,4,2,6,3,0,0,0,0,0,0,0,0,0,0,0,0,0,0,0,0,0,0,0,0,0,0,0,0,0,0],"split_type":[0,0,0,0,0,0,0,0,0,0,0,0,0,0,0,0,0,0,0,0,0,0,0,0,0,0,0,0,0,0,0,0,0,0,0,0,0,0,0,0,0,0,0,0,0,0,0,0,0,0,0,0,0,0,0,0,0],"sum_hessian":[2.7287097E2,9.623231E1,1.7663866E2,7.585055E1,2.0381758E1,4.432909E1,1.3230956E2,3.5847087E0,7.226584E1,1.4216676E1,6.165082E0,2.42451E1,2.008399E1,6.4824936E1,6.748463E1,1.8687863E0,1.7159225E0,1.0963674E1,6.130217E1,5.9193068E0,8.297368E0,3.3772316E0,2.7878501E0,7.8103004E0,1.64348E1,7.5794168E0,1.2504574E1,1.2452665E1,5.237227E1,5.243099E1,1.5053635E1,1.1754469E0,9.788226E0,2.0790405E1,4.0511765E1,3.439102E0,4.858267E0,1.1660094E0,2.2112222E0,1.2615681E0,1.5262821E0,1.2347169E0,6.5755835E0,1.3900905E1,2.5338948E0,6.525581E0,1.0538359E0,3.9852562E0,8.519318E0,1.5238853E0,1.0928781E1,2.9292397E0,4.9443027E1,2.936916E1,2.306183E1,1.1751298E1,3.3023372E0],"tree_param":{"num_deleted":"0","num_feature":"11","num_nodes":"57","size_leaf_vector":"0"}},{"base_weights":[4.460174E-2,-8.8473266E-1,5.4691035E-1,-9.929869E-1,-4.275708E-1,-1.06678694E-1,7.715052E-1,-1.2457471E0,-8.184841E-1,-8.160794E-1,5.4248816E-1,3.7228012E-1,-8.40312E-1,4.9259326E-1,1.0736039E0,1.6966617E-2,-1.3069668E0,3.1004664E-1,-8.780195E-1,-3.688657E-1,-1.1144522E0,6.793355E-1,-7.688543E-2,7.327497E-1,-7.2017145E-1,-1.1536807E0,-1.6331753E-1,3.2696274E-1,1.2079715E0,6.164394E-1,1.1896036E0,-5.5212826E-1,-1.361012E0,-1.0135563E-1,5.9118783E-1,-1.3226247E0,-7.0596695E-1,-9.7977465E-1,2.1608421E-1,-1.3795807E0,-2.4153736E-1,8.777631E-1,-3.640282E-2,-9.6215093E-1,8.71733E-1,-1.095417E0,-1.964487E-1,-1.2427903E0,-1.3625489E-1,4.531641E-1,-5.2405787E-1,6.7846246E-2,9.0408045E-1,-7.326693E-1,7.890589E-1,6.908121E-1,1.309869E0],"categories":[],"categories_nodes":[],"categories_segments":[],"categories_sizes":[],"default_left":[1,1,1,1,1,1,1,1,1,1,1,1,1,1,1,0,1,1,1,1,1,1,0,1,1,1,1,1,0,1,1,0,0,0,0,0,0,0,0,0,0,0,0,0,0,0,0,0,0,0,0,0,0,0,0,0,0],"id":14,"left_children":[1,3,5,7,9,11,13,15,17,19,21,23,25,27,29,-1,31,33,35,37,39,41,-1,43,45,47,49,51,-1,53,55,-1,-1,-1,-1,-1,-1,-1,-1,-1,-1,-1,-1,-1,-1,-1,-1,-1,-1,-1,-1,-1,-1,-1,-1,-1,-1],"loss_changes":[1.2657321E2,4.284477E0,2.5911186E1,2.3404007E0,7.970434E0,1.6433739E1,1.0515465E1,2.27919E0,3.4959564E0,1.5452747E0,5.872879E-1,1.1731284E1,3.7211857E0,7.8993835E0,2.5585632E0,0E0,3.850975E-1,4.2349508E-1,2.572647E0,2.8425293E0,1.5875397E0,7.806885E-1,0E0,5.9946012E0,1.2710886E0,9.578285E-1,1.793332E0,8.643738E0,0E0,3.9871635E0,2.0006866E0,0E0,0E0,0E0,0E0,0E0,0E0,0E0,0E0,0E0,0E0,0E0,0E0,0E0,0E0,0E0,0E0,0E0,0E0,0E0,0E0,0E0,0E0,0E0,0E0,0E0,0E0],"parents":[2147483647,0,0,1,1,2,2,3,3,4,4,5,5,6,6,7,7,8,8,9,9,10,10,11,11,12,12,13,13,14,14,16,16,17,17,18,18,19,19,20,20,21,21,23,23,24,24,25,25,26,26,27,27,29,29,30,30],"right_children":[2,4,6,8,10,12,14,16,18,20,22,24,26,28,30,-1,32,34,36,38,40,42,-1,44,46,48,50,52,-1,54,56,-1,-1,-1,-1,-1,-1,-1,-1,-1,-1,-1,-1,-1,-1,-1,-1,-1,-1,-1,-1,-1,-1,-1,-1,-1,-1],"split_conditions":[1.5E0,3.5E0,1.5E0,1.425E2,5E-1,5E-1,5E-1,1.615E2,5E-1,1.275E2,1.43E2,1.425E2,1.51E2,1.42E2,5E-1,5.0899846E-4,1.115E2,2.31E2,4.25E1,1.43E2,1.45E2,1.62E2,-2.3065628E-3,1.175E2,2.395E2,6.35E1,1.595E2,2.5E0,3.6239143E-2,1.885E2,3.5E0,-1.6563848E-2,-4.083036E-2,-3.0406688E-3,1.7735634E-2,-3.967874E-2,-2.1179007E-2,-2.9393239E-2,6.482526E-3,-4.138742E-2,-7.246121E-3,2.6332892E-2,-1.0920846E-3,-2.8864527E-2,2.615199E-2,-3.286251E-2,-5.893461E-3,-3.728371E-2,-4.0876465E-3,1.3594923E-2,-1.5721736E-2,2.0353873E-3,2.7122414E-2,-2.1980079E-2,2.3671767E-2,2.0724364E-2,3.9296072E-2],"split_indices":[10,2,2,7,8,8,8,4,10,3,3,3,7,3,1,0,3,4,0,7,3,7,0,7,4,0,7,10,0,4,2,0,0,0,0,0,0,0,0,0,0,0,0,0,0,0,0,0,0,0,0,0,0,0,0,0,0],"split_type":[0,0,0,0,0,0,0,0,0,0,0,0,0,0,0,0,0,0,0,0,0,0,0,0,0,0,0,0,0,0,0,0,0,0,0,0,0,0,0,0,0,0,0,0,0,0,0,0,0,0,0,0,0,0,0,0,0],"sum_hessian":[2.6910693E2,9.4152176E1,1.7495477E2,7.517819E1,1.8973988E1,4.4878822E1,1.3007594E2,2.8197065E1,4.6981125E1,1.366135E1,5.312638E0,2.7450247E1,1.7428576E1,6.900127E1,6.1074684E1,1.3372806E0,2.6859785E1,2.1434221E0,4.4837704E1,6.3619905E0,7.29936E0,4.2719603E0,1.0406775E0,2.0887415E1,6.5628314E0,1.1432536E1,5.996039E0,5.721208E1,1.1789186E1,1.3638471E1,4.7436214E1,2.5440178E0,2.4315767E1,1.1297339E0,1.0136882E0,1.0644265E1,3.4193436E1,2.7817838E0,3.5802064E0,5.153629E0,2.1457307E0,3.1674566E0,1.1045039E0,1.1341146E0,1.97533E1,3.1874425E0,3.3753886E0,1.0308204E1,1.1243329E0,2.1188526E0,3.8771863E0,4.025555E1,1.6956528E1,1.1790653E0,1.2459405E1,1.0525714E1,3.69105E1],"tree_param":{"num_deleted":"0","num_feature":"11","num_nodes":"57","size_leaf_vector":"0"}},{"base_weights":[8.0476575E-2,-8.260996E-1,5.881207E-1,-1.2209893E0,-5.1752913E-1,-1.0930788E-1,8.2054496E-1,-4.7249663E-1,-1.2721196E0,-6.771744E-1,1.9363698E-1,4.2522222E-1,-8.638093E-1,5.783686E-1,1.0815573E0,-7.624579E-1,-2.2392672E-2,-1.3425943E0,-7.800336E-1,-3.41118E-1,-1.1212354E0,-6.2297416E-1,1.1531162E0,1.148364E0,-7.366596E-4,-1.477959E-1,-1.1369501E0,1.077377E0,2.610398E-1,6.189368E-1,1.2035073E0,-1.3652931E0,-3.355938E-1,-1.0437138E0,-1.214561E-1,-2.6429167E-2,-9.7068864E-1,-3.5217085E-1,-1.2204237E0,-9.375098E-1,5.2604508E-2,1.2866869E0,3.1809786E-1,4.7237813E-1,1.3258543E0,5.5952483E-1,-4.7292525E-1,4.4055435E-1,-7.5034225E-1,-6.7332876E-1,-1.3460886E0,1.1207224E0,1.1888057E-1,5.6163188E-2,6.2347853E-1,-4.8529214E-1,7.7257985E-1,7.9785067E-1,1.2874858E0],"categories":[],"categories_nodes":[],"categories_segments":[],"categories_sizes":[],"default_left":[1,1,1,1,1,1,1,1,1,1,1,1,1,1,1,0,0,1,1,1,1,1,1,1,1,1,1,1,1,1,1,0,0,0,0,0,0,0,0,0,0,0,0,0,0,0,0,0,0,0,0,0,0,0,0,0,0,0,0],"id":15,"left_children":[1,3,5,7,9,11,13,15,17,19,21,23,25,27,29,-1,-1,31,33,35,37,39,41,43,45,47,49,51,53,55,57,-1,-1,-1,-1,-1,-1,-1,-1,-1,-1,-1,-1,-1,-1,-1,-1,-1,-1,-1,-1,-1,-1,-1,-1,-1,-1,-1,-1],"loss_changes":[1.2404619E2,1.1162018E1,2.8083076E1,9.9559784E-1,6.49685E0,1.81322E1,7.569412E0,5.387331E-1,2.8658295E-1,6.4838867E0,9.381507E0,8.149044E0,3.468769E0,1.0707933E1,2.710411E0,0E0,0E0,2.7914047E-1,1.1243925E0,5.4480534E0,1.04883E0,1.4565098E0,1.9682789E-1,5.502739E-1,4.93294E0,2.5584204E0,3.843212E-1,9.7426414E-1,3.212999E0,2.8919044E0,5.878906E-1,0E0,0E0,0E0,0E0,0E0,0E0,0E0,0E0,0E0,0E0,0E0,0E0,0E0,0E0,0E0,0E0,0E0,0E0,0E0,0E0,0E0,0E0,0E0,0E0,0E0,0E0,0E0,0E0],"parents":[2147483647,0,0,1,1,2,2,3,3,4,4,5,5,6,6,7,7,8,8,9,9,10,10,11,11,12,12,13,13,14,14,17,17,18,18,19,19,20,20,21,21,22,22,23,23,24,24,25,25,26,26,27,27,28,28,29,29,30,30],"right_children":[2,4,6,8,10,12,14,16,18,20,22,24,26,28,30,-1,-1,32,34,36,38,40,42,44,46,48,50,52,54,56,58,-1,-1,-1,-1,-1,-1,-1,-1,-1,-1,-1,-1,-1,-1,-1,-1,-1,-1,-1,-1,-1,-1,-1,-1,-1,-1,-1,-1],"split_conditions":[1.5E0,5E-2,1.5E0,1.5E0,3.5E0,5E-1,5E-1,2.385E2,1.5E0,1.95E0,5E-1,5.1E1,5E-1,2.5E-1,5E-1,-2.2873737E-2,-6.7178014E-4,6.25E1,3.5E0,2.655E2,5E-1,2.475E2,3.145E2,5E-1,5.5E-1,6.5E-1,2.35E2,1.5E0,5.95E1,1.98E2,3.5E0,-4.0958792E-2,-1.0067813E-2,-3.1311415E-2,-3.643683E-3,-7.92875E-4,-2.912066E-2,-1.0565125E-2,-3.661271E-2,-2.8125294E-2,1.5781352E-3,3.8600605E-2,9.5429355E-3,1.4171343E-2,3.977563E-2,1.6785745E-2,-1.4187757E-2,1.3216631E-2,-2.2510268E-2,-2.0199861E-2,-4.0382657E-2,3.3621673E-2,3.566417E-3,1.6848956E-3,1.8704355E-2,-1.4558764E-2,2.3177395E-2,2.393552E-2,3.8624573E-2],"split_indices":[10,9,2,2,2,8,8,4,6,9,8,0,1,9,1,0,0,0,2,4,10,4,4,2,9,9,4,6,0,4,2,0,0,0,0,0,0,0,0,0,0,0,0,0,0,0,0,0,0,0,0,0,0,0,0,0,0,0,0],"split_type":[0,0,0,0,0,0,0,0,0,0,0,0,0,0,0,0,0,0,0,0,0,0,0,0,0,0,0,0,0,0,0,0,0,0,0,0,0,0,0,0,0,0,0,0,0,0,0,0,0,0,0,0,0,0,0,0,0,0,0],"sum_hessian":[2.6748218E2,9.578939E1,1.716928E2,4.0720646E1,5.506874E1,4.3048412E1,1.2864438E2,3.2586389E0,3.746201E1,4.5012062E1,1.005668E1,2.5452728E1,1.7595686E1,6.8398094E1,6.024628E1,1.5598248E0,1.6988139E0,3.1257113E1,6.204896E0,2.6628405E1,1.8383657E1,5.622282E0,4.4343977E0,8.806375E0,1.6646353E1,5.284349E0,1.23113365E1,2.5656847E1,4.2741245E1,1.3835671E1,4.641061E1,3.0220116E1,1.0369966E0,4.0132694E0,2.1916263E0,1.8448807E1,8.179597E0,2.619977E0,1.57636795E1,3.5716712E0,2.050611E0,3.3565683E0,1.0778295E0,2.592826E0,6.213549E0,7.5285788E0,9.117775E0,2.8096957E0,2.4746532E0,5.138895E0,7.172442E0,2.4384855E1,1.2719922E0,2.8043812E1,1.4697433E1,1.4263022E0,1.2409369E1,9.76099E0,3.664962E1],"tree_param":{"num_deleted":"0","num_feature":"11","num_nodes":"59","size_leaf_vector":"0"}},{"base_weights":[7.371628E-2,-1.929696E-1,6.4921474E-1,5.4134913E-3,-7.69741E-1,-3.2313964E-3,1.0749966E0,3.5117373E-1,-2.2595906E-1,-1.3334973E0,-5.412412E-1,-2.749233E-1,8.41734E-1,3.1995597E-1,1.2102011E0,-5.3753603E-2,6.452036E-1,-4.2167875E-1,2.4161541E-1,-2.4913198E-1,-1.5302627E0,-1.0054312E0,-6.895809E-2,-1.0900483E0,5.8399703E-2,9.866697E-1,-3.3758637E-2,5.6877124E-1,-7.437417E-1,5.4012215E-1,1.275863E0,-3.8590014E-1,7.884363E-1,9.099378E-1,4.1094288E-1,-7.861878E-1,-2.570363E-1,4.0152553E-1,-9.4206655E-1,-1.2857422E0,-1.4437954E-1,2.7163377E-1,-4.2792705E-1,-1.4723716E0,-2.590579E-1,4.9637854E-1,-7.768696E-1,1.133966E0,1.5375994E-1,-5.6434894E-1,1.0179394E0,9.1220033E-1,-5.409315E-2,1.296529E0,3.4777224E-1],"categories":[],"categories_nodes":[],"categories_segments":[],"categories_sizes":[],"default_left":[1,1,1,1,1,1,1,1,1,1,1,1,1,1,1,1,1,1,1,0,0,1,1,1,1,1,0,1,0,1,1,0,0,0,0,0,0,0,0,0,0,0,0,0,0,0,0,0,0,0,0,0,0,0,0],"id":16,"left_children":[1,3,5,7,9,11,13,15,17,19,21,23,25,27,29,31,33,35,37,-1,-1,39,41,43,45,47,-1,49,-1,51,53,-1,-1,-1,-1,-1,-1,-1,-1,-1,-1,-1,-1,-1,-1,-1,-1,-1,-1,-1,-1,-1,-1,-1,-1],"loss_changes":[4.0309258E1,2.0564083E1,2.3099216E1,1.0854641E1,5.203039E0,7.997187E0,4.7487564E0,6.510346E0,7.5421624E0,2.3033466E0,7.474622E0,7.223154E0,1.1089182E0,2.8050654E0,1.1724777E0,6.962716E0,1.5849581E0,3.2593088E0,5.0395107E0,0E0,0E0,3.9852734E0,2.3329194E0,2.0645428E0,7.5748863E0,7.219491E-1,0E0,4.5752754E0,0E0,1.2676086E0,2.741127E-1,0E0,0E0,0E0,0E0,0E0,0E0,0E0,0E0,0E0,0E0,0E0,0E0,0E0,0E0,0E0,0E0,0E0,0E0,0E0,0E0,0E0,0E0,0E0,0E0],"parents":[2147483647,0,0,1,1,2,2,3,3,4,4,5,5,6,6,7,7,8,8,9,9,10,10,11,11,12,12,13,13,14,14,15,15,16,16,17,17,18,18,21,21,22,22,23,23,24,24,25,25,27,27,29,29,30,30],"right_children":[2,4,6,8,10,12,14,16,18,20,22,24,26,28,30,32,34,36,38,-1,-1,40,42,44,46,48,-1,50,-1,52,54,-1,-1,-1,-1,-1,-1,-1,-1,-1,-1,-1,-1,-1,-1,-1,-1,-1,-1,-1,-1,-1,-1,-1,-1],"split_conditions":[3.5E0,1.75E0,5E-1,5E-1,5E-1,1.42E2,5E-1,1.56E2,1.685E2,1.26E2,1.5E0,5E-1,3.27E2,3.395E2,6.5E-1,6.35E1,1.64E2,5.05E1,1.51E2,-7.473959E-3,-4.590788E-2,1.445E2,1.51E2,1.35E2,1.31E2,6.5E1,-1.012759E-3,5.3E1,-2.231225E-2,1.31E2,7.1E1,-1.1577004E-2,2.3653088E-2,2.7298134E-2,1.2328287E-2,-2.3585634E-2,-7.7110888E-3,1.2045765E-2,-2.8261997E-2,-3.8572263E-2,-4.331386E-3,8.149013E-3,-1.2837811E-2,-4.4171147E-2,-7.771737E-3,1.4891356E-2,-2.3306087E-2,3.401898E-2,4.6127983E-3,-1.6930468E-2,3.0538183E-2,2.7366009E-2,-1.6227944E-3,3.889587E-2,1.0433167E-2],"split_indices":[2,9,8,1,1,3,1,7,7,7,2,1,4,4,9,0,7,0,3,0,0,7,7,3,3,0,0,0,0,3,0,0,0,0,0,0,0,0,0,0,0,0,0,0,0,0,0,0,0,0,0,0,0,0,0],"split_type":[0,0,0,0,0,0,0,0,0,0,0,0,0,0,0,0,0,0,0,0,0,0,0,0,0,0,0,0,0,0,0,0,0,0,0,0,0,0,0,0,0,0,0,0,0,0,0,0,0,0,0,0,0,0,0],"sum_hessian":[2.6082358E2,1.7868546E2,8.213812E1,1.3369208E2,4.4993374E1,3.2827446E1,4.9310677E1,5.338958E1,8.03025E1,1.15820875E1,3.3411285E1,2.5350748E1,7.4766974E0,8.0002575E0,4.1310417E1,2.2803123E1,3.0586454E1,5.6676655E1,2.3625843E1,2.126911E0,9.455177E0,1.62807E1,1.7130585E1,6.6988335E0,1.8651915E1,6.305799E0,1.1708982E0,6.860718E0,1.1395392E0,4.5101533E0,3.6800266E1,1.6742094E1,6.06103E0,1.30051985E1,1.7581257E1,1.6460009E1,4.021665E1,2.1396109E1,2.2297354E0,1.1910179E1,4.3705225E0,8.91514E0,8.215444E0,4.0593667E0,2.6394668E0,1.25020895E1,6.149825E0,5.0510864E0,1.2547126E0,1.8747753E0,4.985943E0,2.4444094E0,2.0657437E0,3.5610336E1,1.1899278E0],"tree_param":{"num_deleted":"0","num_feature":"11","num_nodes":"55","size_leaf_vector":"0"}},{"base_weights":[6.01941E-2,-8.07154E-1,5.295144E-1,-1.1527077E0,-5.170499E-1,8.454988E-1,4.125294E-1,-1.2874883E0,-7.8627676E-1,-8.609828E-1,-2.0834266E-1,5.362193E-1,1.144369E0,1.6315149E-1,7.0022136E-1,-1.344878E0,1.2355797E-2,-1.8224543E-1,-9.005267E-1,-4.897046E-1,-1.3655373E0,6.351811E-2,-9.177918E-1,1.0440576E0,1.09754466E-1,1.249036E0,-6.7273476E-3,-7.4397735E-2,4.3950573E-1,9.028089E-1,4.293438E-1,-1.3703501E0,-3.7111157E-1,-6.007606E-1,3.70314E-1,-1.0718107E0,-3.9462948E-1,-9.7674507E-1,-3.7889723E-3,5.09517E-1,-6.274606E-1,-1.1946492E0,2.8151306E-3,1.2601211E0,-7.6520786E-2,5.543436E-1,-4.8026899E-1,1.4135482E0,6.9672567E-1,-3.582002E-1,1.8544507E-1,2.7302092E-1,9.2184925E-1,1.262086E-2,1.0812644E0,8.576122E-3,7.7847594E-1],"categories":[],"categories_nodes":[],"categories_segments":[],"categories_sizes":[],"default_left":[1,1,1,1,1,1,1,1,1,1,1,1,1,1,1,1,0,1,1,1,0,1,1,1,1,1,0,1,1,1,1,0,0,0,0,0,0,0,0,0,0,0,0,0,0,0,0,0,0,0,0,0,0,0,0,0,0],"id":17,"left_children":[1,3,5,7,9,11,13,15,17,19,21,23,25,27,29,31,-1,33,35,37,-1,39,41,43,45,47,-1,49,51,53,55,-1,-1,-1,-1,-1,-1,-1,-1,-1,-1,-1,-1,-1,-1,-1,-1,-1,-1,-1,-1,-1,-1,-1,-1,-1,-1],"loss_changes":[1.073765E2,8.691315E0,5.9755554E0,1.0357018E0,5.360448E0,3.5712318E0,8.983919E0,2.1611595E0,7.8270435E-1,3.8948383E0,5.616005E0,5.1116295E0,2.6761875E0,4.577772E0,2.8270397E0,1.7459106E-1,0E0,1.0170658E0,5.5480766E-1,3.686581E0,0E0,7.028026E0,2.054553E0,2.7348309E0,4.0000505E0,8.598633E-1,0E0,2.8750653E0,2.3298893E0,5.1663876E0,3.9556274E0,0E0,0E0,0E0,0E0,0E0,0E0,0E0,0E0,0E0,0E0,0E0,0E0,0E0,0E0,0E0,0E0,0E0,0E0,0E0,0E0,0E0,0E0,0E0,0E0,0E0,0E0],"parents":[2147483647,0,0,1,1,2,2,3,3,4,4,5,5,6,6,7,7,8,8,9,9,10,10,11,11,12,12,13,13,14,14,15,15,17,17,18,18,19,19,21,21,22,22,23,23,24,24,25,25,27,27,28,28,29,29,30,30],"right_children":[2,4,6,8,10,12,14,16,18,20,22,24,26,28,30,32,-1,34,36,38,-1,40,42,44,46,48,-1,50,52,54,56,-1,-1,-1,-1,-1,-1,-1,-1,-1,-1,-1,-1,-1,-1,-1,-1,-1,-1,-1,-1,-1,-1,-1,-1,-1,-1],"split_conditions":[1.5E0,5E-2,5E-2,5E-1,1.425E2,1.625E2,1.355E2,1.805E2,1.135E2,1.325E2,1.465E2,1.45E2,1.46E2,5E-1,1.435E2,6.35E1,3.706739E-4,5E-1,5.55E1,5.75E1,-4.0966116E-2,1.8499999E0,1.65E2,1.59E2,1.33E2,5.5E1,-2.0182042E-4,5E-1,1.5E0,1.1500001E0,1.465E2,-4.1110504E-2,-1.1133347E-2,-1.8022817E-2,1.110942E-2,-3.215432E-2,-1.1838884E-2,-2.9302351E-2,-1.13669164E-4,1.528551E-2,-1.8823817E-2,-3.5839476E-2,8.445392E-5,3.780363E-2,-2.2956235E-3,1.6630307E-2,-1.440807E-2,4.2406447E-2,2.090177E-2,-1.0746006E-2,5.563352E-3,8.190627E-3,2.7655477E-2,3.786258E-4,3.243793E-2,2.5728365E-4,2.3354277E-2],"split_indices":[10,9,9,6,7,7,3,7,3,7,3,7,3,8,7,0,0,1,0,0,0,9,3,3,3,0,0,6,6,9,3,0,0,0,0,0,0,0,0,0,0,0,0,0,0,0,0,0,0,0,0,0,0,0,0,0,0],"split_type":[0,0,0,0,0,0,0,0,0,0,0,0,0,0,0,0,0,0,0,0,0,0,0,0,0,0,0,0,0,0,0,0,0,0,0,0,0,0,0,0,0,0,0,0,0,0,0,0,0,0,0,0,0,0,0,0,0],"sum_hessian":[2.6173288E2,9.16448E1,1.7008807E2,4.0468197E1,5.11766E1,4.4273876E1,1.2581419E2,2.7748245E1,1.2719953E1,2.3360983E1,2.781562E1,2.31312E1,2.1142675E1,6.8234276E1,5.7579914E1,2.6541752E1,1.2064934E0,2.4360223E0,1.0283931E1,1.4593141E1,8.767842E0,2.0767853E1,7.0477676E0,9.89727E0,1.3233931E1,1.9302458E1,1.8402178E0,3.7086323E1,3.1147957E1,3.1607767E1,2.5972149E1,2.5468275E1,1.073477E0,1.3365048E0,1.0995173E0,6.8470573E0,3.4368737E0,6.783662E0,7.8094783E0,1.2780908E1,7.9869447E0,5.1894503E0,1.8583176E0,8.193013E0,1.7042576E0,7.581591E0,5.6523395E0,1.3671038E1,5.6314197E0,1.7545E1,1.954132E1,2.4319805E1,6.8281507E0,5.4570622E0,2.6150703E1,1.2242399E1,1.372975E1],"tree_param":{"num_deleted":"0","num_feature":"11","num_nodes":"57","size_leaf_vector":"0"}},{"base_weights":[2.821504E-2,-7.955367E-1,4.8471642E-1,-1.1762124E0,-4.8634306E-1,-2.3554972E-1,7.2796035E-1,-1.251288E0,-6.797562E-1,-6.348032E-1,2.1901168E-1,3.6826655E-1,-7.5861305E-1,4.7283718E-1,1.0128626E0,-1.2927915E0,-2.6105034E-1,-2.2369233E-1,-1.0071323E0,-3.091536E-1,-1.0599672E0,-4.1304073E-1,1.0352075E0,-5.3196925E-1,5.656847E-1,-1.0596025E0,6.9403845E-1,1.0082394E0,1.5597695E-1,1.0473113E0,2.2584565E-1,-5.8375347E-1,1.6285425E-1,1.3066058E-2,-9.361761E-1,-1.1806402E0,9.084838E-2,-8.078651E-1,2.0257689E-1,4.300137E-2,-1.0997654E0,8.3292294E-1,-2.1601036E-2,-1.173886E0,1.0369389E-1,1.253239E0,-5.795052E-1,1.0615633E0,-1.3793808E-1,-1.539338E-1,1.245386E0,1.1293508E0,5.511721E-1,7.913427E-1,-2.9428285E-1],"categories":[],"categories_nodes":[],"categories_segments":[],"categories_sizes":[],"default_left":[1,1,1,1,1,1,1,1,1,1,1,1,1,1,1,0,0,1,0,1,1,1,0,1,1,1,1,1,1,1,1,0,0,0,0,0,0,0,0,0,0,0,0,0,0,0,0,0,0,0,0,0,0,0,0],"id":18,"left_children":[1,3,5,7,9,11,13,15,17,19,21,23,25,27,29,-1,-1,31,-1,33,35,37,-1,39,41,43,45,47,49,51,53,-1,-1,-1,-1,-1,-1,-1,-1,-1,-1,-1,-1,-1,-1,-1,-1,-1,-1,-1,-1,-1,-1,-1,-1],"loss_changes":[9.850125E1,1.0422966E1,2.969307E1,6.83609E-1,5.715356E0,1.3953365E1,8.694466E0,1.083107E0,9.088831E-1,5.798723E0,5.5877934E0,3.9921167E0,1.1021522E1,1.1456629E1,1.3562241E0,0E0,0E0,7.1578604E-1,0E0,5.359892E0,2.7153034E0,1.707602E0,0E0,1.4350411E0,2.7674417E0,2.7651386E0,4.032186E0,1.6908455E0,1.5111036E1,1.6572952E0,1.3325083E0,0E0,0E0,0E0,0E0,0E0,0E0,0E0,0E0,0E0,0E0,0E0,0E0,0E0,0E0,0E0,0E0,0E0,0E0,0E0,0E0,0E0,0E0,0E0,0E0],"parents":[2147483647,0,0,1,1,2,2,3,3,4,4,5,5,6,6,7,7,8,8,9,9,10,10,11,11,12,12,13,13,14,14,17,17,19,19,20,20,21,21,23,23,24,24,25,25,26,26,27,27,28,28,29,29,30,30],"right_children":[2,4,6,8,10,12,14,16,18,20,22,24,26,28,30,-1,-1,32,-1,34,36,38,-1,40,42,44,46,48,50,52,54,-1,-1,-1,-1,-1,-1,-1,-1,-1,-1,-1,-1,-1,-1,-1,-1,-1,-1,-1,-1,-1,-1,-1,-1],"split_conditions":[1.5E0,5E-2,1.5E0,1.5E0,3.5E0,5.5E-1,5E-1,1.805E2,1.645E2,1.95E0,5E-1,2.035E2,1.705E2,2.5E-1,1.79E2,-3.8783744E-2,-7.83151E-3,1.465E2,-3.0213969E-2,2.655E2,1.725E2,2.475E2,3.1056225E-2,1.96E2,5E-1,3.415E2,2.9E2,1.5E0,1.42E2,1.515E2,1.23E2,-1.7512603E-2,4.8856274E-3,3.9198174E-4,-2.8085284E-2,-3.5419207E-2,2.7254513E-3,-2.4235953E-2,6.077307E-3,1.290041E-3,-3.2992963E-2,2.4987688E-2,-6.4803107E-4,-3.5216577E-2,3.1108165E-3,3.7597172E-2,-1.7385155E-2,3.1846896E-2,-4.1381423E-3,-4.6180137E-3,3.736158E-2,3.3880524E-2,1.6535161E-2,2.374028E-2,-8.828485E-3],"split_indices":[10,9,2,6,2,9,8,7,7,9,8,4,7,9,3,0,0,7,0,4,7,4,0,4,8,4,4,6,3,7,7,0,0,0,0,0,0,0,0,0,0,0,0,0,0,0,0,0,0,0,0,0,0,0,0],"split_type":[0,0,0,0,0,0,0,0,0,0,0,0,0,0,0,0,0,0,0,0,0,0,0,0,0,0,0,0,0,0,0,0,0,0,0,0,0,0,0,0,0,0,0,0,0,0,0,0,0,0,0,0,0,0,0],"sum_hessian":[2.5991544E2,9.2413536E1,1.675019E2,4.016218E1,5.2251358E1,4.2294853E1,1.25207054E2,3.356582E1,6.596365E0,4.3248592E1,9.002763E0,1.9769356E1,2.2525497E1,6.7458885E1,5.7748165E1,3.1922337E1,1.6434807E0,3.4598186E0,3.1365464E0,2.5468454E1,1.7780138E1,5.352102E0,3.6506605E0,3.2508228E0,1.6518532E1,1.8883425E1,3.6420722E0,2.4269121E1,4.3189766E1,5.5009598E1,2.73857E0,1.5271397E0,1.932679E0,1.746999E1,7.998465E0,1.6069223E1,1.7109151E0,3.0705383E0,2.2815635E0,2.0744386E0,1.1763842E0,1.106518E1,5.453353E0,1.7185955E1,1.6974692E0,2.5418944E0,1.1001776E0,2.3260777E1,1.008344E0,3.4292946E1,8.896821E0,4.6108936E1,8.90066E0,1.0622393E0,1.6763308E0],"tree_param":{"num_deleted":"0","num_feature":"11","num_nodes":"55","size_leaf_vector":"0"}},{"base_weights":[5.894086E-2,-2.0925722E-1,6.48981E-1,-3.321411E-2,-7.4600303E-1,-1.3472092E-1,9.31377E-1,-3.339388E-1,2.8575924E-1,-1.2885373E0,-5.066417E-1,-9.377043E-1,8.9361615E-2,1.0034354E0,-9.4424856E-1,-4.245522E-1,1.1765232E0,5.3967524E-1,-7.2291774E-1,-3.2429066E-1,-1.4738965E0,-9.319651E-1,-7.6723665E-2,-1.1125606E0,-2.1462151E-1,-1.9475292E-1,7.129941E-1,3.6099386E-1,1.1679305E0,-1.6123265E-2,-6.1771274E-1,2.3017561E-2,9.177323E-1,-1.3093108E0,-8.091794E-2,-5.4218614E-1,3.9212737E-2,-1.2296295E0,-3.2820556E-2,4.3639877E-1,-4.973203E-1,-3.5570312E-1,6.126055E-1,8.9126176E-1,-6.1873283E-2,-8.326138E-1,9.75068E-1,1.1978307E0,3.133766E-1],"categories":[],"categories_nodes":[],"categories_segments":[],"categories_sizes":[],"default_left":[1,1,1,1,1,1,1,1,1,1,1,1,1,1,0,1,0,1,1,1,0,1,1,0,0,1,1,1,1,0,0,0,0,0,0,0,0,0,0,0,0,0,0,0,0,0,0,0,0],"id":19,"left_children":[1,3,5,7,9,11,13,15,17,19,21,23,25,27,-1,29,-1,31,33,35,-1,37,39,-1,-1,41,43,45,47,-1,-1,-1,-1,-1,-1,-1,-1,-1,-1,-1,-1,-1,-1,-1,-1,-1,-1,-1,-1],"loss_changes":[4.1237186E1,1.6919218E1,1.8142342E1,1.3148492E1,5.0924416E0,4.1211176E0,9.052811E0,1.0149231E1,1.7441141E1,1.8268948E0,5.8430586E0,3.9117527E-1,3.408827E0,5.732765E0,0E0,5.295435E0,0E0,1.0479303E1,5.095287E0,2.874985E-1,0E0,4.2874517E0,3.9238515E0,0E0,0E0,1.9675391E0,8.8268423E-1,1.0574212E1,7.978897E-1,0E0,0E0,0E0,0E0,0E0,0E0,0E0,0E0,0E0,0E0,0E0,0E0,0E0,0E0,0E0,0E0,0E0,0E0,0E0,0E0],"parents":[2147483647,0,0,1,1,2,2,3,3,4,4,5,5,6,6,7,7,8,8,9,9,10,10,11,11,12,12,13,13,15,15,17,17,18,18,19,19,21,21,22,22,25,25,26,26,27,27,28,28],"right_children":[2,4,6,8,10,12,14,16,18,20,22,24,26,28,-1,30,-1,32,34,36,-1,38,40,-1,-1,42,44,46,48,-1,-1,-1,-1,-1,-1,-1,-1,-1,-1,-1,-1,-1,-1,-1,-1,-1,-1,-1,-1],"split_conditions":[3.5E0,1.8499999E0,8.5E-1,5E-1,5E-1,5E-1,1.735E2,3.51E2,1.5E0,1.26E2,1.5E0,5.85E1,1.5E0,5E-1,-2.8327456E-2,5E-1,3.5295695E-2,1.5E0,5.55E1,1.16E2,-4.4216894E-2,1.445E2,1.51E2,-3.3376817E-2,-6.438645E-3,6.25E1,2.855E2,1.31E2,3.6E2,-4.8369795E-4,-1.8531382E-2,6.905268E-4,2.7531968E-2,-3.9279323E-2,-2.4275382E-3,-1.6265584E-2,1.1763821E-3,-3.6888886E-2,-9.846167E-4,1.3091963E-2,-1.4919609E-2,-1.0671093E-2,1.8378165E-2,2.6737852E-2,-1.8561984E-3,-2.4978414E-2,2.925204E-2,3.593492E-2,9.401298E-3],"split_indices":[2,9,9,6,1,1,7,4,6,7,2,0,6,1,0,1,0,2,0,7,0,7,7,0,0,0,4,3,4,0,0,0,0,0,0,0,0,0,0,0,0,0,0,0,0,0,0,0,0],"split_type":[0,0,0,0,0,0,0,0,0,0,0,0,0,0,0,0,0,0,0,0,0,0,0,0,0,0,0,0,0,0,0,0,0,0,0,0,0,0,0,0,0,0,0,0,0,0,0,0,0],"sum_hessian":[2.587283E2,1.783198E2,8.04085E1,1.3507837E2,4.3241425E1,2.1437727E1,5.897077E1,6.950391E1,6.557446E1,1.189564E1,3.1345783E1,3.9824111E0,1.7455317E1,5.7236843E1,1.7339296E0,6.624854E1,3.255359E0,5.2758453E1,1.2816009E1,2.3613458E0,9.534294E0,1.5170067E1,1.6175716E1,2.773167E0,1.2092441E0,1.2464466E1,4.9908504E0,1.2319019E1,4.4917824E1,2.1619207E1,4.4629337E1,2.274108E1,3.0017372E1,6.154842E0,6.6611667E0,1.169033E0,1.1923128E0,1.1120906E1,4.049162E0,7.2694774E0,8.906239E0,1.0859086E1,1.6053796E0,3.9352794E0,1.055571E0,4.063907E0,8.255112E0,4.301119E1,1.9066346E0],"tree_param":{"num_deleted":"0","num_feature":"11","num_nodes":"49","size_leaf_vector":"0"}},{"base_weights":[6.350677E-2,-8.283898E-1,5.4738104E-1,-1.1875646E0,-5.4137546E-1,-1.2960656E-1,7.7468807E-1,-2.0244129E-1,-1.2480445E0,-6.8418837E-1,1.1335249E-1,3.6164E-1,-6.348273E-1,5.594422E-1,1.0064614E0,-6.401413E-1,3.5736305E-1,-1.2824823E0,-5.865812E-1,-3.6830294E-1,-1.0544275E0,-5.875958E-1,1.0365145E0,5.191155E-1,-5.278774E-1,4.835172E-1,-8.622295E-1,1.0738167E0,2.4062064E-1,6.7021716E-1,1.0857904E0,-1.3028374E0,-3.849698E-1,2.1936864E-1,-9.7161484E-1,-1.2156596E-1,-9.6071213E-1,1.4863182E-2,-1.1255087E0,-7.7911377E-1,-3.2650236E-2,7.237574E-1,-3.1566214E-2,-9.9335176E-1,5.964313E-2,8.3914536E-1,-1.6012175E-1,-4.035827E-1,-1.1895915E0,1.1039724E0,1.6837576E-1,-5.6023072E-2,1.3085667E0,1.2443247E0,3.6886203E-1,6.948705E-1,1.1774338E0],"categories":[],"categories_nodes":[],"categories_segments":[],"categories_sizes":[],"default_left":[1,1,1,1,1,1,1,1,1,1,1,1,1,1,1,0,0,1,1,1,1,1,0,1,1,1,1,1,1,1,1,0,0,0,0,0,0,0,0,0,0,0,0,0,0,0,0,0,0,0,0,0,0,0,0,0,0],"id":20,"left_children":[1,3,5,7,9,11,13,15,17,19,21,23,25,27,29,-1,-1,31,33,35,37,39,-1,41,43,45,47,49,51,53,55,-1,-1,-1,-1,-1,-1,-1,-1,-1,-1,-1,-1,-1,-1,-1,-1,-1,-1,-1,-1,-1,-1,-1,-1,-1,-1],"loss_changes":[1.1355352E2,8.900028E0,2.633741E1,2.1471634E0,5.0605288E0,1.1078831E1,5.8118973E0,1.0920944E0,1.0775757E-1,4.7448597E0,7.339196E0,3.4678628E0,5.989771E0,1.0976189E1,8.8014984E-1,0E0,0E0,1.3866043E-1,1.3648212E0,3.5697238E0,1.511795E0,6.7071366E-1,0E0,2.2626486E0,1.1326894E0,1.1285958E0,2.3080292E0,5.219784E-1,1.3879784E1,1.9838109E0,8.7132645E-1,0E0,0E0,0E0,0E0,0E0,0E0,0E0,0E0,0E0,0E0,0E0,0E0,0E0,0E0,0E0,0E0,0E0,0E0,0E0,0E0,0E0,0E0,0E0,0E0,0E0,0E0],"parents":[2147483647,0,0,1,1,2,2,3,3,4,4,5,5,6,6,7,7,8,8,9,9,10,10,11,11,12,12,13,13,14,14,17,17,18,18,19,19,20,20,21,21,23,23,24,24,25,25,26,26,27,27,28,28,29,29,30,30],"right_children":[2,4,6,8,10,12,14,16,18,20,22,24,26,28,30,-1,-1,32,34,36,38,40,-1,42,44,46,48,50,52,54,56,-1,-1,-1,-1,-1,-1,-1,-1,-1,-1,-1,-1,-1,-1,-1,-1,-1,-1,-1,-1,-1,-1,-1,-1,-1,-1],"split_conditions":[1.5E0,5E-2,1.5E0,1.5E0,3.5E0,7.0000005E-1,5E-1,5E-1,1.51E2,1.8499999E0,5E-1,1.45E2,5.05E1,2.5E-1,5E-1,-1.9204238E-2,1.0720891E-2,6.25E1,1.58E2,1.43E2,3.95E1,2.4499998E0,3.1095436E-2,5E-1,1.54E2,5E-1,5E-1,1.58E2,1.42E2,1.29E2,3.5E0,-3.908512E-2,-1.1549094E-2,6.5810587E-3,-2.9148445E-2,-3.6469786E-3,-2.8821364E-2,4.4589545E-4,-3.376526E-2,-2.3373412E-2,-9.795071E-4,2.171272E-2,-9.469864E-4,-2.9800553E-2,1.7892938E-3,2.517436E-2,-4.8036524E-3,-1.210748E-2,-3.5687745E-2,3.311917E-2,5.051273E-3,-1.6806922E-3,3.9257E-2,3.732974E-2,1.106586E-2,2.0846114E-2,3.5323016E-2],"split_indices":[10,9,2,2,2,9,8,1,3,9,8,3,0,9,1,0,0,0,3,3,0,9,0,8,3,8,8,3,3,3,2,0,0,0,0,0,0,0,0,0,0,0,0,0,0,0,0,0,0,0,0,0,0,0,0,0,0],"split_type":[0,0,0,0,0,0,0,0,0,0,0,0,0,0,0,0,0,0,0,0,0,0,0,0,0,0,0,0,0,0,0,0,0,0,0,0,0,0,0,0,0,0,0,0,0,0,0,0,0,0,0,0,0,0,0,0,0],"sum_hessian":[2.6106912E2,9.1570564E1,1.6949855E2,3.9278774E1,5.229179E1,4.2713852E1,1.2678469E2,2.5234234E0,3.675535E1,4.289114E1,9.400648E0,2.1800522E1,2.0913332E1,6.750611E1,5.9278584E1,1.3356196E0,1.1878039E0,3.404406E1,2.71129E0,2.4220854E1,1.8670288E1,5.5500464E0,3.8506021E0,1.8875338E1,2.9251835E0,3.3435879E0,1.7569744E1,2.4925E1,4.2581112E1,1.31193695E1,4.6159214E1,3.284749E1,1.1965729E0,1.0156336E0,1.6956562E0,1.794995E1,6.2709036E0,1.2130444E0,1.7457243E1,3.8257806E0,1.7242658E0,1.3532249E1,5.3430877E0,1.2467052E0,1.6784785E0,1.9579921E0,1.3855958E0,8.247504E0,9.32224E0,2.390943E1,1.0155714E0,3.40661E1,8.515011E0,3.43889E0,9.68048E0,1.0395942E1,3.576327E1],"tree_param":{"num_deleted":"0","num_feature":"11","num_nodes":"57","size_leaf_vector":"0"}},{"base_weights":[2.8881103E-2,-2.1630362E-1,5.8373404E-1,-5.5587355E-2,-7.831123E-1,1.9896671E-2,9.700063E-1,-3.5044327E-1,2.5650877E-1,-8.6928505E-1,7.5192803E-1,-3.580671E-1,5.915725E-1,1.8311967E-1,1.1225269E0,-7.2251123E-1,-7.0133366E-2,5.072979E-1,-7.8636783E-1,3.5182345E-1,-9.133095E-1,-5.423672E-1,4.4390857E-1,-5.299617E-2,1.0102937E0,4.1501245E-1,-7.5311077E-1,1.1541002E0,9.3414545E-2,-1.0769495E0,-3.8707364E-1,-3.6329305E-1,4.2101425E-1,-1.2648109E-1,7.6891106E-1,-1.0304581E0,2.973067E-1,-1.0828196E0,-5.2946377E-1,5.478576E-2,-1.0535626E0,9.005733E-1,-3.518926E-1,9.93808E-1,-5.2613753E-1,1.2817441E0,2.668105E-1,-1.5263702E-1,8.493489E-1,6.065127E-1,1.201934E0],"categories":[],"categories_nodes":[],"categories_segments":[],"categories_sizes":[],"default_left":[1,1,1,1,1,1,1,1,1,1,0,1,1,1,1,1,1,1,1,0,1,1,1,1,1,1,0,1,0,0,0,0,0,0,0,0,0,0,0,0,0,0,0,0,0,0,0,0,0,0,0],"id":21,"left_children":[1,3,5,7,9,11,13,15,17,19,-1,21,23,25,27,29,31,33,35,-1,37,39,41,43,45,47,-1,49,-1,-1,-1,-1,-1,-1,-1,-1,-1,-1,-1,-1,-1,-1,-1,-1,-1,-1,-1,-1,-1,-1,-1],"loss_changes":[3.5815964E1,1.659724E1,1.755022E1,1.3285709E1,5.981537E0,7.518929E0,5.5375023E0,7.6835194E0,1.876938E1,2.3964443E0,0E0,3.3418422E0,3.7880177E0,2.2587123E0,1.1882515E0,3.3586712E0,6.402082E0,9.586332E0,4.0118427E0,0E0,1.868967E0,5.4030037E0,1.9415574E0,3.6922462E0,1.3609114E0,2.0599685E0,0E0,2.8240585E-1,0E0,0E0,0E0,0E0,0E0,0E0,0E0,0E0,0E0,0E0,0E0,0E0,0E0,0E0,0E0,0E0,0E0,0E0,0E0,0E0,0E0,0E0,0E0],"parents":[2147483647,0,0,1,1,2,2,3,3,4,4,5,5,6,6,7,7,8,8,9,9,11,11,12,12,13,13,14,14,15,15,16,16,17,17,18,18,20,20,21,21,22,22,23,23,24,24,25,25,27,27],"right_children":[2,4,6,8,10,12,14,16,18,20,-1,22,24,26,28,30,32,34,36,-1,38,40,42,44,46,48,-1,50,-1,-1,-1,-1,-1,-1,-1,-1,-1,-1,-1,-1,-1,-1,-1,-1,-1,-1,-1,-1,-1,-1,-1],"split_conditions":[3.5E0,1.95E0,5E-1,5E-1,2.45E1,1.45E0,5E-1,1.505E2,1.5E0,1.04E2,2.255784E-2,1.425E2,2.365E2,3.395E2,1.645E2,2.44E2,5E-2,1.445E2,1.51E2,1.0554703E-2,2.5E0,1.275E2,2.685E2,1.235E2,2.98E2,1.2E0,-2.2593323E-2,5.5E-1,2.8024362E-3,-3.2308485E-2,-1.1612209E-2,-1.0898791E-2,1.2630427E-2,-3.7944324E-3,2.3067331E-2,-3.0913742E-2,8.919201E-3,-3.2484587E-2,-1.5883913E-2,1.6435727E-3,-3.160688E-2,2.7017199E-2,-1.0556778E-2,2.9814238E-2,-1.5784126E-2,3.8452324E-2,8.004315E-3,-4.5791105E-3,2.5480466E-2,1.8195381E-2,3.605802E-2],"split_indices":[2,9,8,6,9,9,1,7,6,7,0,3,4,4,7,4,9,7,3,0,2,3,4,7,4,9,0,9,0,0,0,0,0,0,0,0,0,0,0,0,0,0,0,0,0,0,0,0,0,0,0],"split_type":[0,0,0,0,0,0,0,0,0,0,0,0,0,0,0,0,0,0,0,0,0,0,0,0,0,0,0,0,0,0,0,0,0,0,0,0,0,0,0,0,0,0,0,0,0,0,0,0,0,0,0],"sum_hessian":[2.6134427E2,1.8167416E2,7.967008E1,1.4239635E2,3.9277824E1,3.2817806E1,4.685228E1,7.315734E1,6.9239E1,3.7600735E1,1.6770917E0,1.9981007E1,1.2836799E1,7.9641457E0,3.8888134E1,3.075599E1,4.2401356E1,5.6230377E1,1.3008623E1,1.0651474E0,3.6535587E1,1.6510483E1,3.470523E0,5.3990593E0,7.43774E0,6.829325E0,1.1348203E0,3.761272E1,1.2754147E0,1.3879603E1,1.6876387E1,2.671552E1,1.5685833E1,1.6580154E1,3.9650223E1,1.0657257E1,2.3513658E0,2.4080446E1,1.2455141E1,8.026802E0,8.483681E0,2.1214743E0,1.349049E0,1.3381082E0,4.0609508E0,4.9181285E0,2.5196111E0,3.2414868E0,3.5878384E0,4.120622E0,3.3492096E1],"tree_param":{"num_deleted":"0","num_feature":"11","num_nodes":"51","size_leaf_vector":"0"}},{"base_weights":[6.2152665E-2,-1.7683849E-1,5.8788157E-1,-3.0933473E-2,-6.6520476E-1,5.2398648E-2,9.482981E-1,-3.1912437E-1,2.8015956E-1,-9.172292E-1,-1.5154034E-1,-2.6645437E-1,6.539583E-1,2.942372E-1,1.044204E0,-4.0364137E-1,1.1513034E0,4.862211E-1,-6.6548E-1,5.788738E-1,-9.9549353E-1,-7.26941E-1,6.065927E-1,-3.6981857E-1,6.523074E-1,-6.506391E-2,1.0459628E0,5.309723E-1,-5.8955395E-1,7.93652E-1,1.1829484E0,-8.9025426E-1,-2.4929152E-1,-1.5792343E-1,7.465401E-1,-1.2042603E0,-1.3847566E-1,-1.1952254E0,-5.70154E-1,-1.044951E0,-3.0273867E-1,8.8458717E-1,9.245267E-3,2.3607625E-2,-7.197891E-1,-5.0369513E-1,4.5917284E-1,1.3661814E0,2.6132524E-1,-3.2281217E-1,8.7869394E-1,8.721524E-1,-2.7382955E-1,3.2281053E-1,1.210003E0],"categories":[],"categories_nodes":[],"categories_segments":[],"categories_sizes":[],"default_left":[1,1,1,1,1,1,1,1,1,1,1,1,1,1,1,1,0,1,1,0,1,1,1,1,0,1,1,1,0,1,1,0,0,0,0,0,0,0,0,0,0,0,0,0,0,0,0,0,0,0,0,0,0,0,0],"id":22,"left_children":[1,3,5,7,9,11,13,15,17,19,21,23,25,27,29,31,-1,33,35,-1,37,39,41,43,-1,45,47,49,-1,51,53,-1,-1,-1,-1,-1,-1,-1,-1,-1,-1,-1,-1,-1,-1,-1,-1,-1,-1,-1,-1,-1,-1,-1,-1],"loss_changes":[3.292062E1,1.2828779E1,1.5748564E1,1.2631638E1,5.2247944E0,6.693733E0,2.758175E0,9.547861E0,1.3536482E1,3.807726E0,6.912685E0,2.4183726E0,3.468482E0,1.9118459E0,5.2905273E-1,5.024873E0,0E0,9.550575E0,3.3978715E0,0E0,1.5777588E0,8.828006E-1,1.1453459E0,2.9421678E0,0E0,1.4265634E0,1.6194019E0,2.2291887E0,0E0,1.7545652E0,1.9438934E-1,0E0,0E0,0E0,0E0,0E0,0E0,0E0,0E0,0E0,0E0,0E0,0E0,0E0,0E0,0E0,0E0,0E0,0E0,0E0,0E0,0E0,0E0,0E0,0E0],"parents":[2147483647,0,0,1,1,2,2,3,3,4,4,5,5,6,6,7,7,8,8,9,9,10,10,11,11,12,12,13,13,14,14,15,15,17,17,18,18,20,20,21,21,22,22,23,23,25,25,26,26,27,27,29,29,30,30],"right_children":[2,4,6,8,10,12,14,16,18,20,22,24,26,28,30,32,-1,34,36,-1,38,40,42,44,-1,46,48,50,-1,52,54,-1,-1,-1,-1,-1,-1,-1,-1,-1,-1,-1,-1,-1,-1,-1,-1,-1,-1,-1,-1,-1,-1,-1,-1],"split_conditions":[3.5E0,1.8499999E0,5E-1,5E-1,2.5E0,1.7E0,8.5E-1,3.51E2,1.5E0,3.95E1,5.5E1,1.51E2,2.365E2,2.905E2,1.305E2,4.45E1,3.45391E-2,1.445E2,5.55E1,1.7366214E-2,2.695E2,1.275E2,1.52E2,1.275E2,1.9569222E-2,1.39E2,2.98E2,5.1E1,-1.7686618E-2,1.58E2,1.72E2,-2.6707627E-2,-7.4787457E-3,-4.7377027E-3,2.2396203E-2,-3.612781E-2,-4.1542696E-3,-3.585676E-2,-1.710462E-2,-3.1348526E-2,-9.08216E-3,2.6537614E-2,2.7735802E-4,7.0822873E-4,-2.1593671E-2,-1.5110853E-2,1.3775185E-2,4.098544E-2,7.839757E-3,-9.684365E-3,2.6360817E-2,2.616457E-2,-8.214886E-3,9.684316E-3,3.630009E-2],"split_indices":[2,9,8,6,2,9,9,4,6,0,0,3,4,4,3,0,0,7,0,0,4,3,7,3,0,3,4,0,0,7,4,0,0,0,0,0,0,0,0,0,0,0,0,0,0,0,0,0,0,0,0,0,0,0,0],"split_type":[0,0,0,0,0,0,0,0,0,0,0,0,0,0,0,0,0,0,0,0,0,0,0,0,0,0,0,0,0,0,0,0,0,0,0,0,0,0,0,0,0,0,0,0,0,0,0,0,0,0,0,0,0,0,0],"sum_hessian":[2.6018652E2,1.7932898E2,8.085755E1,1.3889566E2,4.0433323E1,3.2989433E1,4.786812E1,7.208843E1,6.680722E1,2.6597744E1,1.3835578E1,2.1925182E1,1.1064249E1,6.641599E0,4.1226517E1,6.8856224E1,3.2322128E0,5.5253025E1,1.1554196E1,1.0042424E0,2.5593502E1,7.8891153E0,5.946463E0,2.0245022E1,1.6801604E0,4.198077E0,6.866172E0,5.5532885E0,1.088311E0,1.7088118E1,2.4138401E1,1.5433103E1,5.342312E1,1.6015911E1,3.9237114E1,5.0778136E0,6.476383E0,1.618382E1,9.409681E0,3.6725786E0,4.2165365E0,3.7298167E0,2.2166462E0,9.9698105E0,1.0275212E1,2.306991E0,1.891086E0,4.349808E0,2.5163634E0,1.62788E0,3.9254084E0,1.6088018E1,1.0000982E0,1.130445E0,2.3007956E1],"tree_param":{"num_deleted":"0","num_feature":"11","num_nodes":"55","size_leaf_vector":"0"}},{"base_weights":[5.795698E-2,-7.136514E-1,4.6539578E-1,-1.0436947E0,-4.6179554E-1,6.836667E-1,3.2683462E-1,-5.534189E-1,-1.1295041E0,-1.6148448E-1,-7.1561974E-1,8.8773704E-1,3.4941754E-1,-1.858621E-3,5.844718E-1,6.1113775E-1,-8.739711E-1,-1.1841679E0,-5.469925E-1,1.3007686E-1,-6.2056595E-1,-4.7539594E-3,-7.780995E-1,9.6064097E-1,-2.9211578E-1,4.770417E-1,-5.624825E-1,7.6072186E-2,-9.4872886E-1,8.8377297E-1,3.6590338E-1,-1.1001502E0,-4.4252646E-1,-1.2432872E0,-5.1778454E-1,-9.7099495E-1,-2.1308701E-2,3.8444084E-1,-6.0409147E-1,-8.3957684E-1,4.4548503E-1,1.4519438E-1,-1.590243E-1,-1.0540885E0,-5.461943E-1,7.0554525E-1,1.2108208E0,3.2382533E-1,1.0484368E0,-9.2196023E-1,1.9577928E-1,1.0023427E0,-3.9147142E-2,-3.3780223E-1,-1.1404996E0,4.3128636E-2,9.603603E-1,4.5854744E-1,-6.031482E-1],"categories":[],"categories_nodes":[],"categories_segments":[],"categories_sizes":[],"default_left":[1,1,1,1,1,1,1,1,1,1,1,1,1,1,1,0,1,1,1,1,1,1,1,1,0,1,1,1,1,1,1,0,0,0,0,0,0,0,0,0,0,0,0,0,0,0,0,0,0,0,0,0,0,0,0,0,0,0,0],"id":23,"left_children":[1,3,5,7,9,11,13,15,17,19,21,23,25,27,29,-1,31,33,35,37,39,41,43,45,-1,47,49,51,53,55,57,-1,-1,-1,-1,-1,-1,-1,-1,-1,-1,-1,-1,-1,-1,-1,-1,-1,-1,-1,-1,-1,-1,-1,-1,-1,-1,-1,-1],"loss_changes":[8.200481E1,7.0131226E0,4.936722E0,9.8337555E-1,3.9195137E0,4.1464596E0,9.001412E0,3.3919325E0,3.577652E-1,3.4990983E0,1.257535E0,3.7143192E0,3.3428085E0,3.591804E0,3.5744858E0,0E0,1.391182E-1,4.597168E-1,9.9736595E-1,3.303431E0,2.7304869E0,9.943534E-2,1.0945168E0,1.5599785E0,0E0,1.736692E0,1.1896466E0,4.841439E0,4.838395E-2,1.5321636E0,3.5213785E0,0E0,0E0,0E0,0E0,0E0,0E0,0E0,0E0,0E0,0E0,0E0,0E0,0E0,0E0,0E0,0E0,0E0,0E0,0E0,0E0,0E0,0E0,0E0,0E0,0E0,0E0,0E0,0E0],"parents":[2147483647,0,0,1,1,2,2,3,3,4,4,5,5,6,6,7,7,8,8,9,9,10,10,11,11,12,12,13,13,14,14,16,16,17,17,18,18,19,19,20,20,21,21,22,22,23,23,25,25,26,26,27,27,28,28,29,29,30,30],"right_children":[2,4,6,8,10,12,14,16,18,20,22,24,26,28,30,-1,32,34,36,38,40,42,44,46,-1,48,50,52,54,56,58,-1,-1,-1,-1,-1,-1,-1,-1,-1,-1,-1,-1,-1,-1,-1,-1,-1,-1,-1,-1,-1,-1,-1,-1,-1,-1,-1,-1],"split_conditions":[1.5E0,5E-2,7.5E-1,1.19E2,1.31E2,5.55E1,1.305E2,1.975E2,1.51E2,1.95E0,1.155E2,1.485E2,3.185E2,1.79E2,5.65E1,1.8334132E-2,5E-1,5E-1,5E-1,2.655E2,7.5E0,2.625E2,1.44E2,1.655E2,-8.7634735E-3,5E-1,3.325E2,4.15E1,1.83E2,1.97E2,1.74E2,-3.3004507E-2,-1.3275794E-2,-3.7298616E-2,-1.5533536E-2,-2.9129848E-2,-6.3926104E-4,1.1533225E-2,-1.8122744E-2,-2.5187304E-2,1.3364551E-2,4.3558315E-3,-4.7707288E-3,-3.1622652E-2,-1.638583E-2,2.1166356E-2,3.6324624E-2,9.71476E-3,3.1453103E-2,-2.7658807E-2,5.8733784E-3,3.007028E-2,-1.1744143E-3,-1.0134066E-2,-3.421499E-2,1.2938591E-3,2.8810808E-2,1.3756423E-2,-1.8094447E-2],"split_indices":[10,9,9,3,3,0,3,4,3,9,7,3,4,7,0,0,1,8,1,4,9,4,7,7,0,5,4,0,7,4,3,0,0,0,0,0,0,0,0,0,0,0,0,0,0,0,0,0,0,0,0,0,0,0,0,0,0,0,0],"split_type":[0,0,0,0,0,0,0,0,0,0,0,0,0,0,0,0,0,0,0,0,0,0,0,0,0,0,0,0,0,0,0,0,0,0,0,0,0,0,0,0,0,0,0,0,0,0,0,0,0,0,0,0,0,0,0,0,0,0,0],"sum_hessian":[2.5878702E2,8.916832E1,1.696187E2,3.7232788E1,5.1935535E1,6.433687E1,1.0528183E2,6.6555214E0,3.0577265E1,2.4538782E1,2.7396751E1,3.891937E1,2.5417498E1,4.669772E1,5.8584114E1,1.2408901E0,5.4146314E0,2.700976E1,3.5675044E0,1.5445835E1,9.092947E0,2.3003626E0,2.5096388E1,3.682945E1,2.0899217E0,2.2715273E1,2.7022247E0,4.3996326E1,2.7013955E0,2.3441101E1,3.5143013E1,2.5355043E0,2.879127E0,2.4013628E1,2.9961321E0,1.505832E0,2.0616724E0,1.1825178E1,3.6206574E0,7.719488E0,1.3734592E0,1.1963553E0,1.1040071E0,9.840238E0,1.525615E1,2.0127056E1,1.6702393E1,1.9147663E1,3.5676098E0,1.6867036E0,1.0155212E0,4.0155015E0,3.9980824E1,1.3051264E0,1.3962692E0,2.0878112E0,2.135329E1,3.2557255E1,2.5857568E0],"tree_param":{"num_deleted":"0","num_feature":"11","num_nodes":"59","size_leaf_vector":"0"}},{"base_weights":[4.738063E-2,-7.1008795E-1,4.6396226E-1,-8.1981826E-1,-2.6572204E-1,-1.923127E-1,6.9523907E-1,1.595207E-1,-8.6013967E-1,-7.265958E-1,8.908936E-1,2.4833784E-1,-8.0857545E-1,4.817359E-1,9.350895E-1,6.768267E-1,-3.1216714E-1,-2.0716833E-2,-9.056488E-1,-2.3306167E-2,-9.347155E-1,3.2437876E-1,1.145214E0,6.1203355E-1,-8.981277E-1,-8.9405453E-1,1.5294491E-1,3.460885E-1,1.0080802E0,9.625852E-1,3.6798766E-1,-8.138148E-1,1.1775959E0,-9.2602694E-1,-8.495191E-2,-6.965953E-1,6.8301827E-1,-1.0538977E0,9.6127644E-2,5.3914464E-1,-5.6568254E-2,-9.0160376E-1,7.451172E-1,-1.2521977E0,-3.5375905E-1,-1.14811875E-1,-1.0424707E0,1.15168355E-1,8.144778E-1,1.1592555E0,4.5426422E-1,7.7953917E-1,1.111271E0,8.775717E-1,-2.3339006E-1],"categories":[],"categories_nodes":[],"categories_segments":[],"categories_sizes":[],"default_left":[1,1,1,1,1,1,1,1,1,1,1,1,1,1,1,0,0,1,1,1,1,1,0,1,1,1,0,1,1,1,1,0,0,0,0,0,0,0,0,0,0,0,0,0,0,0,0,0,0,0,0,0,0,0,0],"id":24,"left_children":[1,3,5,7,9,11,13,15,17,19,21,23,25,27,29,-1,-1,31,33,35,37,39,-1,41,43,45,-1,47,49,51,53,-1,-1,-1,-1,-1,-1,-1,-1,-1,-1,-1,-1,-1,-1,-1,-1,-1,-1,-1,-1,-1,-1,-1,-1],"loss_changes":[8.064256E1,4.2049713E0,2.5149487E1,2.9907455E0,1.1011118E1,1.2076102E1,5.8013344E0,1.1143794E0,2.6385918E0,2.0937328E0,4.9138117E-1,1.1500561E1,1.6545572E0,4.4099083E0,5.257149E-1,0E0,0E0,5.3307915E0,1.0244751E0,2.533057E0,1.468399E0,2.9645616E-1,0E0,4.8079724E0,8.542595E-1,1.8586073E0,0E0,5.802842E0,5.7308006E-1,5.817299E-1,1.5006335E0,0E0,0E0,0E0,0E0,0E0,0E0,0E0,0E0,0E0,0E0,0E0,0E0,0E0,0E0,0E0,0E0,0E0,0E0,0E0,0E0,0E0,0E0,0E0,0E0],"parents":[2147483647,0,0,1,1,2,2,3,3,4,4,5,5,6,6,7,7,8,8,9,9,10,10,11,11,12,12,13,13,14,14,17,17,18,18,19,19,20,20,21,21,23,23,24,24,25,25,27,27,28,28,29,29,30,30],"right_children":[2,4,6,8,10,12,14,16,18,20,22,24,26,28,30,-1,-1,32,34,36,38,40,-1,42,44,46,-1,48,50,52,54,-1,-1,-1,-1,-1,-1,-1,-1,-1,-1,-1,-1,-1,-1,-1,-1,-1,-1,-1,-1,-1,-1,-1,-1],"split_conditions":[1.5E0,3.5E0,1.5E0,1.09E2,5E-1,5E-1,5E-1,1.49E2,5E-1,1.13E2,5E-1,1.425E2,1.71E2,1.42E2,1.79E2,2.0304801E-2,-9.365014E-3,1.5E0,3.735E2,1.5E2,1.51E2,2.655E2,3.435642E-2,1.175E2,2.395E2,1.145E2,4.588347E-3,2.5E0,2.71E2,2.465E2,5.65E1,-2.4414444E-2,3.5327874E-2,-2.7780809E-2,-2.5485572E-3,-2.089786E-2,2.0490548E-2,-3.161693E-2,2.8838292E-3,1.6174339E-2,-1.6970476E-3,-2.7048113E-2,2.2353515E-2,-3.756593E-2,-1.0612771E-2,-3.4443561E-3,-3.127412E-2,3.4550505E-3,2.4434334E-2,3.4777664E-2,1.3627927E-2,2.3386175E-2,3.333813E-2,2.632715E-2,-7.0017017E-3],"split_indices":[10,2,2,3,8,8,8,7,10,3,6,3,7,3,3,0,0,2,4,7,3,4,0,7,4,3,0,10,4,4,0,0,0,0,0,0,0,0,0,0,0,0,0,0,0,0,0,0,0,0,0,0,0,0,0],"split_type":[0,0,0,0,0,0,0,0,0,0,0,0,0,0,0,0,0,0,0,0,0,0,0,0,0,0,0,0,0,0,0,0,0,0,0,0,0,0,0,0,0,0,0,0,0,0,0,0,0,0,0,0,0,0,0],"sum_hessian":[2.5351987E2,8.970504E1,1.6381483E2,7.1262726E1,1.8442312E1,4.27305E1,1.21084335E2,2.701109E0,6.8561615E1,1.3453371E1,4.9889402E0,2.5263323E1,1.7467178E1,6.565233E1,5.5432003E1,1.0808372E0,1.6202717E0,3.6007378E0,6.496088E1,3.3259885E0,1.0127382E1,2.250742E0,2.7381985E0,1.9532988E1,5.7303357E0,1.610556E1,1.3616174E0,5.3517532E1,1.2134795E1,5.220356E1,3.228443E0,2.3597882E0,1.2409495E0,6.326173E1,1.6991479E0,1.7098672E0,1.6161214E0,9.05779E0,1.0695925E0,1.1737462E0,1.0769956E0,1.1119065E0,1.842108E1,2.6841965E0,3.0461392E0,2.8604844E0,1.3245077E1,3.6679897E1,1.6837637E1,8.673873E0,3.4609222E0,2.6196314E1,2.6007246E1,1.4989892E0,1.7294538E0],"tree_param":{"num_deleted":"0","num_feature":"11","num_nodes":"55","size_leaf_vector":"0"}},{"base_weights":[5.716161E-2,-6.822202E-1,4.5596895E-1,-2.1042684E-1,-7.742402E-1,-1.3926709E-1,6.575448E-1,-8.9044964E-1,6.0063925E-2,2.4879654E-1,-8.188145E-1,2.729984E-1,-7.243508E-1,4.282276E-1,9.206389E-1,-3.546458E-1,7.374362E-1,-8.543265E-1,1.238964E0,-9.38595E-1,-3.1815574E-1,5.628141E-1,-6.758755E-1,-8.94344E-1,2.0496346E-1,2.7672088E-1,1.0207778E0,1.0128045E0,4.2399496E-1,-6.468593E-1,5.006408E-1,1.0064187E0,1.369717E-1,-1.1355991E0,-6.9255936E-1,-8.412725E-1,5.4302806E-1,-8.8962275E-1,6.902072E-1,-1.0080782E0,-1.8948679E-1,-1.2135538E-1,-1.1888068E0,4.6157798E-1,-7.290521E-2,5.7422746E-2,7.62089E-1,1.0681431E0,2.955753E-1,4.576852E-1,1.0913695E0,7.294929E-1,-8.973715E-1],"categories":[],"categories_nodes":[],"categories_segments":[],"categories_sizes":[],"default_left":[1,1,1,1,1,1,1,0,1,1,1,1,1,1,1,1,1,0,0,1,1,1,1,1,1,1,1,1,1,0,0,0,0,0,0,0,0,0,0,0,0,0,0,0,0,0,0,0,0,0,0,0,0],"id":25,"left_children":[1,3,5,7,9,11,13,-1,15,17,19,21,23,25,27,29,31,-1,-1,33,35,37,39,41,43,45,47,49,51,-1,-1,-1,-1,-1,-1,-1,-1,-1,-1,-1,-1,-1,-1,-1,-1,-1,-1,-1,-1,-1,-1,-1,-1],"loss_changes":[7.683631E1,3.8022728E0,2.0391579E1,3.0479836E0,3.6718636E0,1.0720754E1,7.2414703E0,0E0,3.7964783E0,5.3645797E0,4.0858154E0,7.6180654E0,3.0753946E0,5.956126E0,2.2286606E0,2.4433322E0,6.864126E-1,0E0,0E0,2.048252E0,7.4970255E0,4.445401E0,8.7737894E-1,3.4207754E0,2.9352188E-1,5.992804E0,1.5755177E-1,1.6052856E0,5.01826E0,0E0,0E0,0E0,0E0,0E0,0E0,0E0,0E0,0E0,0E0,0E0,0E0,0E0,0E0,0E0,0E0,0E0,0E0,0E0,0E0,0E0,0E0,0E0,0E0],"parents":[2147483647,0,0,1,1,2,2,3,3,4,4,5,5,6,6,8,8,9,9,10,10,11,11,12,12,13,13,14,14,15,15,16,16,19,19,20,20,21,21,22,22,23,23,24,24,25,25,26,26,27,27,28,28],"right_children":[2,4,6,8,10,12,14,-1,16,18,20,22,24,26,28,30,32,-1,-1,34,36,38,40,42,44,46,48,50,52,-1,-1,-1,-1,-1,-1,-1,-1,-1,-1,-1,-1,-1,-1,-1,-1,-1,-1,-1,-1,-1,-1,-1,-1],"split_conditions":[1.5E0,1.19E2,1.5E0,4.35E1,5E-1,5E-1,5E-1,-2.6713489E-2,1.11E2,5E-1,3.5E0,1.425E2,1.625E2,1.42E2,1.515E2,5E-1,1.5E0,-2.5629794E-2,3.7168916E-2,1.515E2,5E-1,1.175E2,1.54E2,5E-1,1.27E2,2.5E0,1.725E2,5E-1,1.5E0,-1.9405778E-2,1.5019224E-2,3.019256E-2,4.1091507E-3,-3.4067973E-2,-2.077678E-2,-2.5238173E-2,1.6290842E-2,-2.6688682E-2,2.0706216E-2,-3.0242346E-2,-5.6846035E-3,-3.6406612E-3,-3.56642E-2,1.3847339E-2,-2.1871564E-3,1.7226824E-3,2.286267E-2,3.204429E-2,8.867258E-3,1.3730556E-2,3.2741085E-2,2.1884786E-2,-2.6921144E-2],"split_indices":[10,3,2,0,10,8,8,0,3,2,2,3,7,3,7,8,6,0,0,7,8,7,3,1,3,10,7,1,6,0,0,0,0,0,0,0,0,0,0,0,0,0,0,0,0,0,0,0,0,0,0,0,0],"split_type":[0,0,0,0,0,0,0,0,0,0,0,0,0,0,0,0,0,0,0,0,0,0,0,0,0,0,0,0,0,0,0,0,0,0,0,0,0,0,0,0,0,0,0,0,0,0,0,0,0,0,0,0,0],"sum_hessian":[2.5852115E2,9.033359E1,1.6818756E2,1.5279776E1,7.505382E1,4.2625946E1,1.2556161E2,3.69598E0,1.1583796E1,2.942317E0,7.2111496E1,2.5318947E1,1.7306997E1,6.8491196E1,5.7070415E1,7.480453E0,4.103342E0,1.4566672E0,1.4856498E0,5.7483982E1,1.4627518E1,1.970675E1,5.612197E0,1.4662513E1,2.6444848E0,5.571313E1,1.2778062E1,4.726064E1,9.809776E0,5.7571745E0,1.7232785E0,2.3669724E0,1.7363696E0,2.9915028E1,2.7568954E1,9.114273E0,5.513245E0,1.1066216E0,1.860013E1,2.6973405E0,2.9148564E0,4.4342833E0,1.02282295E1,1.0311086E0,1.6133761E0,3.914501E1,1.656812E1,1.15507555E1,1.2273057E0,6.7056766E0,4.0554962E1,8.331477E0,1.4782997E0],"tree_param":{"num_deleted":"0","num_feature":"11","num_nodes":"53","size_leaf_vector":"0"}},{"base_weights":[1.9177824E-2,-7.114063E-1,4.1775832E-1,-1.0195274E0,-4.6644294E-1,-5.2384134E-2,5.8121264E-1,-1.5284374E-1,-1.0923923E0,-7.0318604E-1,-5.2845605E-2,3.823118E-1,-7.249699E-1,3.5937482E-1,8.373047E-1,4.131056E-1,-4.8937038E-1,-1.3149517E0,-8.708267E-1,1.234106E-1,-9.3615645E-1,-9.7958535E-1,3.0801716E-1,6.870752E-1,-5.854142E-1,2.3976725E-5,-1.0152323E0,9.554088E-1,1.1663455E-2,9.2379427E-1,3.7072366E-1,4.7244343E-1,-9.769491E-1,4.8010027E-1,-9.1478866E-1,-1.0053469E0,2.8828436E-1,-1.1985558E0,-2.607667E-1,-8.5605145E-1,7.198291E-1,-8.77959E-1,8.1879747E-1,-9.304452E-1,-1.5972568E-1,4.8850036E-1,-9.081317E-1,-1.2627469E0,5.8327097E-1,1.0203388E0,-5.3221542E-2,-2.8143007E-1,1.1234862E0,4.3811357E-1,1.0062741E0,7.8467846E-1,-4.521247E-1],"categories":[],"categories_nodes":[],"categories_segments":[],"categories_sizes":[],"default_left":[1,1,1,1,1,1,1,1,1,1,1,1,1,1,1,0,0,0,1,1,1,1,1,1,1,1,1,1,1,1,1,0,0,0,0,0,0,0,0,0,0,0,0,0,0,0,0,0,0,0,0,0,0,0,0,0,0],"id":26,"left_children":[1,3,5,7,9,11,13,15,17,19,21,23,25,27,29,-1,-1,-1,31,33,35,37,39,41,43,45,47,49,51,53,55,-1,-1,-1,-1,-1,-1,-1,-1,-1,-1,-1,-1,-1,-1,-1,-1,-1,-1,-1,-1,-1,-1,-1,-1,-1,-1],"loss_changes":[7.353104E1,6.2528687E0,1.2583305E1,2.2731056E0,5.006012E0,1.2866007E1,6.589756E0,9.943167E-1,6.0445404E-1,6.4077168E0,6.9335856E0,8.308927E0,3.629858E0,1.3821441E1,1.8990974E0,0E0,0E0,0E0,3.4180927E0,3.4267962E0,2.4592056E0,5.998926E-1,7.8230004E0,5.0167303E0,8.737478E-1,3.0748873E0,5.6099596E0,1.663969E0,1.4382424E1,1.4094658E0,3.8825243E0,0E0,0E0,0E0,0E0,0E0,0E0,0E0,0E0,0E0,0E0,0E0,0E0,0E0,0E0,0E0,0E0,0E0,0E0,0E0,0E0,0E0,0E0,0E0,0E0,0E0,0E0],"parents":[2147483647,0,0,1,1,2,2,3,3,4,4,5,5,6,6,7,7,8,8,9,9,10,10,11,11,12,12,13,13,14,14,18,18,19,19,20,20,21,21,22,22,23,23,24,24,25,25,26,26,27,27,28,28,29,29,30,30],"right_children":[2,4,6,8,10,12,14,16,18,20,22,24,26,28,30,-1,-1,-1,32,34,36,38,40,42,44,46,48,50,52,54,56,-1,-1,-1,-1,-1,-1,-1,-1,-1,-1,-1,-1,-1,-1,-1,-1,-1,-1,-1,-1,-1,-1,-1,-1,-1,-1],"split_conditions":[1.5E0,5E-2,1.5E0,1.5E0,2.5E0,5E-1,5E-1,1.4E2,1.515E2,6.5E-1,5E-1,1.425E2,5E-1,2.5E-1,1.515E2,1.2393168E-2,-1.4681111E-2,-3.9448548E-2,1.545E2,2.655E2,3.735E2,1.41E2,5.5E-1,1.175E2,2.395E2,1.7E0,1.63E2,1.58E2,1.42E2,5E-1,1.3E0,1.4173303E-2,-2.9308472E-2,1.4403008E-2,-2.7443659E-2,-3.0160407E-2,8.648531E-3,-3.5956673E-2,-7.823002E-3,-2.5681542E-2,2.1594873E-2,-2.633877E-2,2.4563923E-2,-2.7913354E-2,-4.79177E-3,1.4655011E-2,-2.7243951E-2,-3.7882406E-2,1.7498128E-2,3.0610163E-2,-1.5966463E-3,-8.442902E-3,3.3704583E-2,1.3143407E-2,3.0188223E-2,2.3540353E-2,-1.3563741E-2],"split_indices":[10,9,2,2,2,8,8,7,7,9,1,3,1,9,7,0,0,0,7,4,4,3,9,7,4,9,7,3,3,1,9,0,0,0,0,0,0,0,0,0,0,0,0,0,0,0,0,0,0,0,0,0,0,0,0,0,0],"split_type":[0,0,0,0,0,0,0,0,0,0,0,0,0,0,0,0,0,0,0,0,0,0,0,0,0,0,0,0,0,0,0,0,0,0,0,0,0,0,0,0,0,0,0,0,0,0,0,0,0,0,0,0,0,0,0,0,0],"sum_hessian":[2.504928E2,8.814368E1,1.6234912E2,3.7638744E1,5.050493E1,4.2057877E1,1.20291245E2,3.1592329E0,3.447951E1,3.1674358E1,1.8830572E1,2.5808973E1,1.6248903E1,6.574416E1,5.454708E1,1.0932002E0,2.0660324E0,1.4739296E1,1.9740215E1,7.067744E0,2.4606613E1,4.7969227E0,1.40336485E1,1.9848232E1,5.960741E0,4.9314475E0,1.1317455E1,2.3578709E1,4.2165455E1,4.519029E1,9.3567915E0,1.1926086E0,1.8547607E1,5.6605406E0,1.4072031E0,2.3459883E1,1.1467315E0,3.1652963E0,1.6316266E0,3.3853986E0,1.064825E1,1.1010523E0,1.8747179E1,2.6373568E0,3.3233843E0,3.5071352E0,1.4243124E0,9.981889E0,1.3355662E0,2.2141739E1,1.4369704E0,3.3959965E1,8.205492E0,7.4765487E0,3.771374E1,6.2559595E0,3.100832E0],"tree_param":{"num_deleted":"0","num_feature":"11","num_nodes":"57","size_leaf_vector":"0"}},{"base_weights":[4.684029E-2,-6.878854E-1,4.5194566E-1,-9.7894675E-1,-4.635429E-1,-9.603437E-2,6.417712E-1,-1.2922163E-1,-1.0509304E0,-7.144994E-1,-5.4300748E-2,3.2463986E-1,-6.449568E-1,4.3267208E-1,8.847697E-1,2.4551359E-1,-5.066998E-1,-1.1656958E0,-6.0292417E-1,1.5979174E-1,-9.3745303E-1,-9.7963965E-1,2.9826802E-1,5.885993E-1,-4.9611214E-1,4.8755787E-2,-9.197754E-1,9.310817E-1,1.7499341E-1,5.5794847E-1,9.931966E-1,-1.1889862E0,-3.652194E-1,2.9473382E-1,-8.4983087E-1,5.0103456E-1,-9.146322E-1,2.8645573E-2,-1.0780836E0,-1.2048148E0,-1.4697017E-1,-7.206175E-1,5.5912894E-1,2.0174694E-1,1.0675547E0,-8.4457743E-1,9.382606E-2,4.337389E-1,-8.50772E-1,-1.0061245E0,-1.4426154E-3,9.957415E-1,7.185572E-2,-1.0693177E-1,1.2254747E0,8.883248E-1,1.630526E-2,4.5617008E-1,1.0927578E0],"categories":[],"categories_nodes":[],"categories_segments":[],"categories_sizes":[],"default_left":[1,1,1,1,1,1,1,1,1,1,1,1,1,1,1,0,0,1,1,1,1,1,1,1,1,1,1,1,1,1,1,0,0,0,0,0,0,0,0,0,0,0,0,0,0,0,0,0,0,0,0,0,0,0,0,0,0,0,0],"id":27,"left_children":[1,3,5,7,9,11,13,15,17,19,21,23,25,27,29,-1,-1,31,33,35,37,39,41,43,45,47,49,51,53,55,57,-1,-1,-1,-1,-1,-1,-1,-1,-1,-1,-1,-1,-1,-1,-1,-1,-1,-1,-1,-1,-1,-1,-1,-1,-1,-1,-1,-1],"loss_changes":[7.4873955E1,5.3858223E0,1.6921528E1,2.1902122E0,5.3431206E0,1.0039768E1,5.740452E0,7.057911E-1,1.0924835E0,6.4656754E0,7.143979E0,5.6574707E0,3.6299047E0,8.407266E0,1.3870659E0,0E0,0E0,6.4014435E-2,2.2877803E0,3.1853747E0,3.558321E0,9.5310736E-1,4.6486554E0,3.3414955E0,1.4297242E0,2.5457027E0,1.0705986E0,1.1790867E0,1.3523276E1,2.8358684E0,1.6322784E0,0E0,0E0,0E0,0E0,0E0,0E0,0E0,0E0,0E0,0E0,0E0,0E0,0E0,0E0,0E0,0E0,0E0,0E0,0E0,0E0,0E0,0E0,0E0,0E0,0E0,0E0,0E0,0E0],"parents":[2147483647,0,0,1,1,2,2,3,3,4,4,5,5,6,6,7,7,8,8,9,9,10,10,11,11,12,12,13,13,14,14,17,17,18,18,19,19,20,20,21,21,22,22,23,23,24,24,25,25,26,26,27,27,28,28,29,29,30,30],"right_children":[2,4,6,8,10,12,14,16,18,20,22,24,26,28,30,-1,-1,32,34,36,38,40,42,44,46,48,50,52,54,56,58,-1,-1,-1,-1,-1,-1,-1,-1,-1,-1,-1,-1,-1,-1,-1,-1,-1,-1,-1,-1,-1,-1,-1,-1,-1,-1,-1,-1],"split_conditions":[1.5E0,5E-2,1.5E0,1.5E0,2.5E0,5E-1,5E-1,5.65E1,3.5E0,7.0000005E-1,5E-1,1.425E2,5E-1,1.5E-1,3.5E0,7.3654074E-3,-1.5200994E-2,6.45E1,1.135E2,5E-1,1.165E2,1.41E2,5.5E-1,1.265E2,1.54E2,1.7E0,3.6999998E0,1.58E2,